<?xml version="1.0"?>
<opencv_storage>
<cascade>
  <stageType>BOOST</stageType>
  <featureType>HAAR</featureType>
  <height>24</height>
  <width>24</width>
  <stageParams>
    <boostType>GAB</boostType>
    <minHitRate>9.9500000476837158e-01</minHitRate>
    <maxFalseAlarm>5.0000000000000000e-01</maxFalseAlarm>
    <weightTrimRate>9.4999998807907104e-01</weightTrimRate>
    <maxDepth>1</maxDepth>
    <maxWeakCount>100</maxWeakCount></stageParams>
  <featureParams>
    <maxCatCount>0</maxCatCount>
    <featSize>1</featSize>
    <mode>BASIC</mode></featureParams>
  <stageNum>10</stageNum>
  <stages>
    <!-- stage 0 -->
    <_>
      <maxWeakCount>2</maxWeakCount>
      <stageThreshold>-3.6095145344734192e-01</stageThreshold>
      <weakClassifiers>
        <_>
          <internalNodes>
            0 -1 11 -1.4461377263069153e-01</internalNodes>
          <leafValues>
            6.3888889551162720e-01 -9.6613544225692749e-01</leafValues></_>
        <_>
          <internalNodes>
            0 -1 1 -1.2283284962177277e-01</internalNodes>
          <leafValues>
            6.0518401861190796e-01 -9.8356920480728149e-01</leafValues></_></weakClassifiers></_>
    <!-- stage 1 -->
    <_>
      <maxWeakCount>3</maxWeakCount>
      <stageThreshold>-1.4068784713745117e+00</stageThreshold>
      <weakClassifiers>
        <_>
          <internalNodes>
            0 -1 7 -3.8748949766159058e-02</internalNodes>
          <leafValues>
            3.3333334326744080e-01 -9.5190382003784180e-01</leafValues></_>
        <_>
          <internalNodes>
            0 -1 3 -5.1305346190929413e-02</internalNodes>
          <leafValues>
            4.0203249454498291e-01 -9.6003979444503784e-01</leafValues></_>
        <_>
          <internalNodes>
            0 -1 22 -4.1299559175968170e-02</internalNodes>
          <leafValues>
            5.0506514310836792e-01 -9.8910206556320190e-01</leafValues></_></weakClassifiers></_>
    <!-- stage 2 -->
    <_>
      <maxWeakCount>3</maxWeakCount>
      <stageThreshold>-1.4230791330337524e+00</stageThreshold>
      <weakClassifiers>
        <_>
          <internalNodes>
            0 -1 14 -1.2041198462247849e-01</internalNodes>
          <leafValues>
            4.9019607901573181e-01 -9.2585366964340210e-01</leafValues></_>
        <_>
          <internalNodes>
            0 -1 18 -6.1142925173044205e-02</internalNodes>
          <leafValues>
            3.3619397878646851e-01 -9.7200286388397217e-01</leafValues></_>
        <_>
          <internalNodes>
            0 -1 19 -4.6157903969287872e-02</internalNodes>
          <leafValues>
            4.7477737069129944e-01 -9.6211713552474976e-01</leafValues></_></weakClassifiers></_>
    <!-- stage 3 -->
    <_>
      <maxWeakCount>2</maxWeakCount>
      <stageThreshold>-9.9383223056793213e-01</stageThreshold>
      <weakClassifiers>
        <_>
          <internalNodes>
            0 -1 2 -5.0582576543092728e-02</internalNodes>
          <leafValues>
            -1.5625000000000000e-02 -9.7257381677627563e-01</leafValues></_>
        <_>
          <internalNodes>
            0 -1 18 -6.6599383950233459e-02</internalNodes>
          <leafValues>
            3.1882452964782715e-01 -9.7820723056793213e-01</leafValues></_></weakClassifiers></_>
    <!-- stage 4 -->
    <_>
      <maxWeakCount>4</maxWeakCount>
      <stageThreshold>-2.2008042335510254e+00</stageThreshold>
      <weakClassifiers>
        <_>
          <internalNodes>
            0 -1 28 9.1575682163238525e-03</internalNodes>
          <leafValues>
            -9.1489362716674805e-01 5.2380955219268799e-01</leafValues></_>
        <_>
          <internalNodes>
            0 -1 10 -2.0655453205108643e-02</internalNodes>
          <leafValues>
            5.4008984565734863e-01 -7.7922928333282471e-01</leafValues></_>
        <_>
          <internalNodes>
            0 -1 26 -1.0250107879983261e-04</internalNodes>
          <leafValues>
            4.2279288172721863e-01 -8.8592338562011719e-01</leafValues></_>
        <_>
          <internalNodes>
            0 -1 0 -3.8762363791465759e-01</internalNodes>
          <leafValues>
            3.7924206256866455e-01 -9.6571016311645508e-01</leafValues></_></weakClassifiers></_>
    <!-- stage 5 -->
    <_>
      <maxWeakCount>3</maxWeakCount>
      <stageThreshold>-1.2601813077926636e+00</stageThreshold>
      <weakClassifiers>
        <_>
          <internalNodes>
            0 -1 4 -1.1448491364717484e-01</internalNodes>
          <leafValues>
            6.6666668653488159e-01 -9.2069631814956665e-01</leafValues></_>
        <_>
          <internalNodes>
            0 -1 20 1.4696253463625908e-02</internalNodes>
          <leafValues>
            -7.7451843023300171e-01 8.1385755538940430e-01</leafValues></_>
        <_>
          <internalNodes>
            0 -1 15 1.5315826050937176e-02</internalNodes>
          <leafValues>
            -9.8487836122512817e-01 4.3503347039222717e-01</leafValues></_></weakClassifiers></_>
    <!-- stage 6 -->
    <_>
      <maxWeakCount>3</maxWeakCount>
      <stageThreshold>-1.6379662752151489e+00</stageThreshold>
      <weakClassifiers>
        <_>
          <internalNodes>
            0 -1 6 -9.8324686288833618e-02</internalNodes>
          <leafValues>
            3.3333334326744080e-01 -9.1076624393463135e-01</leafValues></_>
        <_>
          <internalNodes>
            0 -1 8 -4.1399079561233521e-01</internalNodes>
          <leafValues>
            2.0996427536010742e-01 -9.4232243299484253e-01</leafValues></_>
        <_>
          <internalNodes>
            0 -1 21 -8.2320734858512878e-02</internalNodes>
          <leafValues>
            2.1512246131896973e-01 -9.2376607656478882e-01</leafValues></_></weakClassifiers></_>
    <!-- stage 7 -->
    <_>
      <maxWeakCount>4</maxWeakCount>
      <stageThreshold>-1.8538099527359009e+00</stageThreshold>
      <weakClassifiers>
        <_>
          <internalNodes>
            0 -1 27 1.7811773344874382e-02</internalNodes>
          <leafValues>
            -9.0430623292922974e-01 6.7741936445236206e-01</leafValues></_>
        <_>
          <internalNodes>
            0 -1 5 -1.0647104680538177e-01</internalNodes>
          <leafValues>
            7.4569982290267944e-01 -7.0389509201049805e-01</leafValues></_>
        <_>
          <internalNodes>
            0 -1 24 -2.3060674720909446e-05</internalNodes>
          <leafValues>
            4.5688945055007935e-01 -8.2830774784088135e-01</leafValues></_>
        <_>
          <internalNodes>
            0 -1 25 2.0307172235334292e-05</internalNodes>
          <leafValues>
            -6.4846175909042358e-01 5.8269912004470825e-01</leafValues></_></weakClassifiers></_>
    <!-- stage 8 -->
    <_>
      <maxWeakCount>3</maxWeakCount>
      <stageThreshold>-1.3802492618560791e+00</stageThreshold>
      <weakClassifiers>
        <_>
          <internalNodes>
            0 -1 16 4.1275314986705780e-02</internalNodes>
          <leafValues>
            -9.0430623292922974e-01 6.7741936445236206e-01</leafValues></_>
        <_>
          <internalNodes>
            0 -1 9 1.4135781675577164e-02</internalNodes>
          <leafValues>
            -7.2107404470443726e-01 4.7593164443969727e-01</leafValues></_>
        <_>
          <internalNodes>
            0 -1 23 9.7304638475179672e-03</internalNodes>
          <leafValues>
            2.4513098597526550e-01 -1.</leafValues></_></weakClassifiers></_>
    <!-- stage 9 -->
    <_>
      <maxWeakCount>3</maxWeakCount>
      <stageThreshold>-1.4762392044067383e+00</stageThreshold>
      <weakClassifiers>
        <_>
          <internalNodes>
            0 -1 13 -1.5049567818641663e-01</internalNodes>
          <leafValues>
            8.7500000000000000e-01 -9.1187739372253418e-01</leafValues></_>
        <_>
          <internalNodes>
            0 -1 12 2.3887172574177384e-05</internalNodes>
          <leafValues>
            -8.1816297769546509e-01 3.4162935614585876e-01</leafValues></_>
        <_>
          <internalNodes>
            0 -1 17 4.9830051138997078e-03</internalNodes>
          <leafValues>
            -9.0599107742309570e-01 3.1356346607208252e-01</leafValues></_></weakClassifiers></_></stages>
  <features>
    <_>
      <rects>
        <_>
          0 1 24 21 -1.</_>
        <_>
          8 1 8 21 3.</_></rects>
      <tilted>0</tilted></_>
    <_>
      <rects>
        <_>
          0 5 24 4 -1.</_>
        <_>
          8 5 8 4 3.</_></rects>
      <tilted>0</tilted></_>
    <_>
      <rects>
        <_>
          0 10 8 5 -1.</_>
        <_>
          4 10 4 5 2.</_></rects>
      <tilted>0</tilted></_>
    <_>
      <rects>
        <_>
          0 10 8 6 -1.</_>
        <_>
          4 10 4 6 2.</_></rects>
      <tilted>0</tilted></_>
    <_>
      <rects>
        <_>
          2 5 21 6 -1.</_>
        <_>
          2 8 21 3 2.</_></rects>
      <tilted>0</tilted></_>
    <_>
      <rects>
        <_>
          2 7 5 12 -1.</_>
        <_>
          2 11 5 4 3.</_></rects>
      <tilted>0</tilted></_>
    <_>
      <rects>
        <_>
          3 5 4 12 -1.</_>
        <_>
          3 9 4 4 3.</_></rects>
      <tilted>0</tilted></_>
    <_>
      <rects>
        <_>
          3 10 10 8 -1.</_>
        <_>
          3 10 5 4 2.</_>
        <_>
          8 14 5 4 2.</_></rects>
      <tilted>0</tilted></_>
    <_>
      <rects>
        <_>
          4 0 17 24 -1.</_>
        <_>
          4 8 17 8 3.</_></rects>
      <tilted>0</tilted></_>
    <_>
      <rects>
        <_>
          4 9 6 4 -1.</_>
        <_>
          4 9 3 2 2.</_>
        <_>
          7 11 3 2 2.</_></rects>
      <tilted>0</tilted></_>
    <_>
      <rects>
        <_>
          5 19 15 1 -1.</_>
        <_>
          10 19 5 1 3.</_></rects>
      <tilted>0</tilted></_>
    <_>
      <rects>
        <_>
          6 0 4 24 -1.</_>
        <_>
          6 8 4 8 3.</_></rects>
      <tilted>0</tilted></_>
    <_>
      <rects>
        <_>
          6 12 2 1 -1.</_>
        <_>
          7 12 1 1 2.</_></rects>
      <tilted>0</tilted></_>
    <_>
      <rects>
        <_>
          7 2 12 6 -1.</_>
        <_>
          11 2 4 6 3.</_></rects>
      <tilted>0</tilted></_>
    <_>
      <rects>
        <_>
          7 3 12 5 -1.</_>
        <_>
          11 3 4 5 3.</_></rects>
      <tilted>0</tilted></_>
    <_>
      <rects>
        <_>
          7 10 12 5 -1.</_>
        <_>
          11 10 4 5 3.</_></rects>
      <tilted>0</tilted></_>
    <_>
      <rects>
        <_>
          7 18 12 3 -1.</_>
        <_>
          11 18 4 3 3.</_></rects>
      <tilted>0</tilted></_>
    <_>
      <rects>
        <_>
          9 8 4 9 -1.</_>
        <_>
          9 11 4 3 3.</_></rects>
      <tilted>0</tilted></_>
    <_>
      <rects>
        <_>
          9 9 8 15 -1.</_>
        <_>
          9 14 8 5 3.</_></rects>
      <tilted>0</tilted></_>
    <_>
      <rects>
        <_>
          10 0 6 8 -1.</_>
        <_>
          10 4 6 4 2.</_></rects>
      <tilted>0</tilted></_>
    <_>
      <rects>
        <_>
          10 19 12 1 -1.</_>
        <_>
          14 19 4 1 3.</_></rects>
      <tilted>0</tilted></_>
    <_>
      <rects>
        <_>
          11 6 10 18 -1.</_>
        <_>
          11 12 10 6 3.</_></rects>
      <tilted>0</tilted></_>
    <_>
      <rects>
        <_>
          11 8 12 8 -1.</_>
        <_>
          15 8 4 8 3.</_></rects>
      <tilted>0</tilted></_>
    <_>
      <rects>
        <_>
          12 6 1 12 -1.</_>
        <_>
          12 10 1 4 3.</_></rects>
      <tilted>0</tilted></_>
    <_>
      <rects>
        <_>
          12 15 1 2 -1.</_>
        <_>
          12 16 1 1 2.</_></rects>
      <tilted>0</tilted></_>
    <_>
      <rects>
        <_>
          14 10 2 2 -1.</_>
        <_>
          14 10 1 1 2.</_>
        <_>
          15 11 1 1 2.</_></rects>
      <tilted>0</tilted></_>
    <_>
      <rects>
        <_>
          16 11 2 2 -1.</_>
        <_>
          17 11 1 2 2.</_></rects>
      <tilted>0</tilted></_>
    <_>
      <rects>
        <_>
          18 18 4 3 -1.</_>
        <_>
          20 18 2 3 2.</_></rects>
      <tilted>0</tilted></_>
    <_>
      <rects>
        <_>
          20 10 1 6 -1.</_>
        <_>
          20 13 1 3 2.</_></rects>
      <tilted>0</tilted></_></features></cascade>
</opencv_storage>
