<?xml version="1.0"?>
<opencv_storage>
<cascade>
  <stageType>BOOST</stageType>
  <featureType>HAAR</featureType>
  <height>50</height>
  <width>50</width>
  <stageParams>
    <boostType>GAB</boostType>
    <minHitRate>9.9500000476837158e-01</minHitRate>
    <maxFalseAlarm>5.0000000000000000e-01</maxFalseAlarm>
    <weightTrimRate>9.4999999999999996e-01</weightTrimRate>
    <maxDepth>1</maxDepth>
    <maxWeakCount>100</maxWeakCount></stageParams>
  <featureParams>
    <maxCatCount>0</maxCatCount>
    <featSize>1</featSize>
    <mode>BASIC</mode></featureParams>
  <stageNum>19</stageNum>
  <stages>
    <!-- stage 0 -->
    <_>
      <maxWeakCount>2</maxWeakCount>
      <stageThreshold>-1.8975594639778137e-01</stageThreshold>
      <weakClassifiers>
        <_>
          <internalNodes>
            0 -1 74 3.8701646029949188e-02</internalNodes>
          <leafValues>
            -9.1055458784103394e-01 8.7319886684417725e-01</leafValues></_>
        <_>
          <internalNodes>
            0 -1 80 -9.8911672830581665e-03</internalNodes>
          <leafValues>
            7.2079861164093018e-01 -9.6958404779434204e-01</leafValues></_></weakClassifiers></_>
    <!-- stage 1 -->
    <_>
      <maxWeakCount>3</maxWeakCount>
      <stageThreshold>-8.6856377124786377e-01</stageThreshold>
      <weakClassifiers>
        <_>
          <internalNodes>
            0 -1 30 1.0238376446068287e-02</internalNodes>
          <leafValues>
            -9.1044777631759644e-01 7.3121130466461182e-01</leafValues></_>
        <_>
          <internalNodes>
            0 -1 97 1.9094679504632950e-02</internalNodes>
          <leafValues>
            -6.3748604059219360e-01 7.8000921010971069e-01</leafValues></_>
        <_>
          <internalNodes>
            0 -1 2 8.3690155297517776e-03</internalNodes>
          <leafValues>
            -5.1733070611953735e-01 6.7936998605728149e-01</leafValues></_></weakClassifiers></_>
    <!-- stage 2 -->
    <_>
      <maxWeakCount>6</maxWeakCount>
      <stageThreshold>-8.0764967203140259e-01</stageThreshold>
      <weakClassifiers>
        <_>
          <internalNodes>
            0 -1 61 1.9341050938237458e-04</internalNodes>
          <leafValues>
            -8.0501395463943481e-01 5.5519741773605347e-01</leafValues></_>
        <_>
          <internalNodes>
            0 -1 165 -4.4511873275041580e-03</internalNodes>
          <leafValues>
            6.7801958322525024e-01 -4.6973928809165955e-01</leafValues></_>
        <_>
          <internalNodes>
            0 -1 20 3.2000589999370277e-04</internalNodes>
          <leafValues>
            -4.6164676547050476e-01 6.7826884984970093e-01</leafValues></_>
        <_>
          <internalNodes>
            0 -1 113 4.7505638212896883e-04</internalNodes>
          <leafValues>
            -3.9809846878051758e-01 6.8637639284133911e-01</leafValues></_>
        <_>
          <internalNodes>
            0 -1 147 5.3574371122522280e-05</internalNodes>
          <leafValues>
            -4.3768680095672607e-01 6.0659915208816528e-01</leafValues></_>
        <_>
          <internalNodes>
            0 -1 53 4.3465424823807552e-05</internalNodes>
          <leafValues>
            -3.6422526836395264e-01 6.5444564819335938e-01</leafValues></_></weakClassifiers></_>
    <!-- stage 3 -->
    <_>
      <maxWeakCount>8</maxWeakCount>
      <stageThreshold>-1.1745100021362305e+00</stageThreshold>
      <weakClassifiers>
        <_>
          <internalNodes>
            0 -1 58 1.4711834490299225e-02</internalNodes>
          <leafValues>
            -7.0879119634628296e-01 5.3236246109008789e-01</leafValues></_>
        <_>
          <internalNodes>
            0 -1 32 -1.5426144003868103e-02</internalNodes>
          <leafValues>
            3.1208959221839905e-01 -8.2579773664474487e-01</leafValues></_>
        <_>
          <internalNodes>
            0 -1 6 1.3801336288452148e-02</internalNodes>
          <leafValues>
            -3.5502889752388000e-01 6.7291343212127686e-01</leafValues></_>
        <_>
          <internalNodes>
            0 -1 49 1.0968069545924664e-02</internalNodes>
          <leafValues>
            -8.6620903015136719e-01 2.6646029949188232e-01</leafValues></_>
        <_>
          <internalNodes>
            0 -1 154 8.6604472016915679e-04</internalNodes>
          <leafValues>
            -3.7953078746795654e-01 5.7116848230361938e-01</leafValues></_>
        <_>
          <internalNodes>
            0 -1 42 3.0171205289661884e-03</internalNodes>
          <leafValues>
            -3.2721778750419617e-01 7.1104723215103149e-01</leafValues></_>
        <_>
          <internalNodes>
            0 -1 31 2.0290669053792953e-03</internalNodes>
          <leafValues>
            -2.3375514149665833e-01 7.1842116117477417e-01</leafValues></_>
        <_>
          <internalNodes>
            0 -1 91 -1.0411379480501637e-04</internalNodes>
          <leafValues>
            -8.6649280786514282e-01 2.5126397609710693e-01</leafValues></_></weakClassifiers></_>
    <!-- stage 4 -->
    <_>
      <maxWeakCount>8</maxWeakCount>
      <stageThreshold>-1.2817419767379761e+00</stageThreshold>
      <weakClassifiers>
        <_>
          <internalNodes>
            0 -1 7 5.7007938623428345e-02</internalNodes>
          <leafValues>
            -6.7454069852828979e-01 5.3896635770797729e-01</leafValues></_>
        <_>
          <internalNodes>
            0 -1 73 1.0081271827220917e-01</internalNodes>
          <leafValues>
            -4.8812898993492126e-01 4.7406414151191711e-01</leafValues></_>
        <_>
          <internalNodes>
            0 -1 127 -1.9349408830748871e-05</internalNodes>
          <leafValues>
            -5.9714734554290771e-01 3.9447650313377380e-01</leafValues></_>
        <_>
          <internalNodes>
            0 -1 0 3.4520402550697327e-03</internalNodes>
          <leafValues>
            -4.1301831603050232e-01 4.9473136663436890e-01</leafValues></_>
        <_>
          <internalNodes>
            0 -1 135 8.0234371125698090e-04</internalNodes>
          <leafValues>
            -3.5785496234893799e-01 5.5980432033538818e-01</leafValues></_>
        <_>
          <internalNodes>
            0 -1 82 1.6038885340094566e-02</internalNodes>
          <leafValues>
            -5.5135059356689453e-01 3.6358708143234253e-01</leafValues></_>
        <_>
          <internalNodes>
            0 -1 138 -1.2658932246267796e-03</internalNodes>
          <leafValues>
            6.1786389350891113e-01 -3.1544762849807739e-01</leafValues></_>
        <_>
          <internalNodes>
            0 -1 117 -9.4052256827126257e-06</internalNodes>
          <leafValues>
            -7.8293037414550781e-01 2.0918495953083038e-01</leafValues></_></weakClassifiers></_>
    <!-- stage 5 -->
    <_>
      <maxWeakCount>7</maxWeakCount>
      <stageThreshold>-8.8963067531585693e-01</stageThreshold>
      <weakClassifiers>
        <_>
          <internalNodes>
            0 -1 108 -3.4445896744728088e-05</internalNodes>
          <leafValues>
            -7.2492837905883789e-01 5.2198243141174316e-01</leafValues></_>
        <_>
          <internalNodes>
            0 -1 108 1.8844915757654235e-05</internalNodes>
          <leafValues>
            3.8749545812606812e-01 -7.0621585845947266e-01</leafValues></_>
        <_>
          <internalNodes>
            0 -1 167 -6.4134122803807259e-03</internalNodes>
          <leafValues>
            5.7247686386108398e-01 -3.7353959679603577e-01</leafValues></_>
        <_>
          <internalNodes>
            0 -1 84 1.3402365148067474e-02</internalNodes>
          <leafValues>
            -2.7670469880104065e-01 6.3221091032028198e-01</leafValues></_>
        <_>
          <internalNodes>
            0 -1 37 6.6490136086940765e-03</internalNodes>
          <leafValues>
            -3.9642187952995300e-01 4.9577301740646362e-01</leafValues></_>
        <_>
          <internalNodes>
            0 -1 109 -2.6443751266924664e-05</internalNodes>
          <leafValues>
            -8.1790757179260254e-01 2.5932666659355164e-01</leafValues></_>
        <_>
          <internalNodes>
            0 -1 111 -1.5382314813905396e-05</internalNodes>
          <leafValues>
            -4.8873448371887207e-01 3.9911347627639771e-01</leafValues></_></weakClassifiers></_>
    <!-- stage 6 -->
    <_>
      <maxWeakCount>10</maxWeakCount>
      <stageThreshold>-1.1128245592117310e+00</stageThreshold>
      <weakClassifiers>
        <_>
          <internalNodes>
            0 -1 43 4.2318226769566536e-03</internalNodes>
          <leafValues>
            -5.1752579212188721e-01 5.8385652303695679e-01</leafValues></_>
        <_>
          <internalNodes>
            0 -1 4 1.1828016489744186e-02</internalNodes>
          <leafValues>
            -3.9284881949424744e-01 5.2456271648406982e-01</leafValues></_>
        <_>
          <internalNodes>
            0 -1 65 4.0093135088682175e-02</internalNodes>
          <leafValues>
            -8.0661898851394653e-01 2.6500242948532104e-01</leafValues></_>
        <_>
          <internalNodes>
            0 -1 153 1.4504590071737766e-03</internalNodes>
          <leafValues>
            -2.9770925641059875e-01 6.9670754671096802e-01</leafValues></_>
        <_>
          <internalNodes>
            0 -1 86 2.6679909788072109e-03</internalNodes>
          <leafValues>
            -2.8978380560874939e-01 6.4821904897689819e-01</leafValues></_>
        <_>
          <internalNodes>
            0 -1 157 5.8201351203024387e-03</internalNodes>
          <leafValues>
            -2.3275423049926758e-01 7.0253252983093262e-01</leafValues></_>
        <_>
          <internalNodes>
            0 -1 92 -4.2271560232620686e-05</internalNodes>
          <leafValues>
            -8.0701112747192383e-01 2.6545640826225281e-01</leafValues></_>
        <_>
          <internalNodes>
            0 -1 22 5.7756425812840462e-03</internalNodes>
          <leafValues>
            -2.7563145756721497e-01 7.1474111080169678e-01</leafValues></_>
        <_>
          <internalNodes>
            0 -1 139 -1.3543503358960152e-02</internalNodes>
          <leafValues>
            -8.1112945079803467e-01 2.2800216078758240e-01</leafValues></_>
        <_>
          <internalNodes>
            0 -1 94 1.1544989320100285e-05</internalNodes>
          <leafValues>
            2.7130243182182312e-01 -5.5927562713623047e-01</leafValues></_></weakClassifiers></_>
    <!-- stage 7 -->
    <_>
      <maxWeakCount>9</maxWeakCount>
      <stageThreshold>-8.1496655941009521e-01</stageThreshold>
      <weakClassifiers>
        <_>
          <internalNodes>
            0 -1 26 2.9022824019193649e-03</internalNodes>
          <leafValues>
            -4.6547883749008179e-01 5.2910512685775757e-01</leafValues></_>
        <_>
          <internalNodes>
            0 -1 3 1.1334253475070000e-02</internalNodes>
          <leafValues>
            -3.8664972782135010e-01 5.0094318389892578e-01</leafValues></_>
        <_>
          <internalNodes>
            0 -1 136 5.1037274533882737e-04</internalNodes>
          <leafValues>
            -3.2648938894271851e-01 5.2721369266510010e-01</leafValues></_>
        <_>
          <internalNodes>
            0 -1 118 5.1857023499906063e-03</internalNodes>
          <leafValues>
            -2.4494011700153351e-01 7.2423976659774780e-01</leafValues></_>
        <_>
          <internalNodes>
            0 -1 38 1.5261512249708176e-02</internalNodes>
          <leafValues>
            -3.2713097333908081e-01 5.6871193647384644e-01</leafValues></_>
        <_>
          <internalNodes>
            0 -1 121 -2.1616557205561548e-05</internalNodes>
          <leafValues>
            -8.4776508808135986e-01 2.3415711522102356e-01</leafValues></_>
        <_>
          <internalNodes>
            0 -1 112 1.9623157568275928e-03</internalNodes>
          <leafValues>
            -2.6701301336288452e-01 7.2071129083633423e-01</leafValues></_>
        <_>
          <internalNodes>
            0 -1 69 2.4890149943530560e-03</internalNodes>
          <leafValues>
            -2.9382222890853882e-01 6.8619710206985474e-01</leafValues></_>
        <_>
          <internalNodes>
            0 -1 125 1.3853138079866767e-04</internalNodes>
          <leafValues>
            -5.2983784675598145e-01 3.7480774521827698e-01</leafValues></_></weakClassifiers></_>
    <!-- stage 8 -->
    <_>
      <maxWeakCount>9</maxWeakCount>
      <stageThreshold>-8.9443033933639526e-01</stageThreshold>
      <weakClassifiers>
        <_>
          <internalNodes>
            0 -1 116 4.6222406672313809e-04</internalNodes>
          <leafValues>
            -5.4198473691940308e-01 5.0787073373794556e-01</leafValues></_>
        <_>
          <internalNodes>
            0 -1 120 1.3991548257763498e-05</internalNodes>
          <leafValues>
            2.8960773348808289e-01 -8.6308443546295166e-01</leafValues></_>
        <_>
          <internalNodes>
            0 -1 34 1.7564899753779173e-03</internalNodes>
          <leafValues>
            -3.6103808879852295e-01 5.6520938873291016e-01</leafValues></_>
        <_>
          <internalNodes>
            0 -1 51 4.1218544356524944e-03</internalNodes>
          <leafValues>
            -2.5603440403938293e-01 7.0829802751541138e-01</leafValues></_>
        <_>
          <internalNodes>
            0 -1 28 1.9697159528732300e-02</internalNodes>
          <leafValues>
            1.9253034889698029e-01 -8.3309292793273926e-01</leafValues></_>
        <_>
          <internalNodes>
            0 -1 129 5.0103496760129929e-03</internalNodes>
          <leafValues>
            -3.5504543781280518e-01 5.1278537511825562e-01</leafValues></_>
        <_>
          <internalNodes>
            0 -1 162 -1.1574513278901577e-02</internalNodes>
          <leafValues>
            6.2592411041259766e-01 -2.5506174564361572e-01</leafValues></_>
        <_>
          <internalNodes>
            0 -1 60 1.7067897715605795e-05</internalNodes>
          <leafValues>
            -5.0004458427429199e-01 3.2927468419075012e-01</leafValues></_>
        <_>
          <internalNodes>
            0 -1 41 1.7347391694784164e-02</internalNodes>
          <leafValues>
            1.6615796089172363e-01 -9.5337218046188354e-01</leafValues></_></weakClassifiers></_>
    <!-- stage 9 -->
    <_>
      <maxWeakCount>9</maxWeakCount>
      <stageThreshold>-6.3499855995178223e-01</stageThreshold>
      <weakClassifiers>
        <_>
          <internalNodes>
            0 -1 99 3.5349056124687195e-03</internalNodes>
          <leafValues>
            -5.7309943437576294e-01 4.7376787662506104e-01</leafValues></_>
        <_>
          <internalNodes>
            0 -1 24 1.2835864908993244e-03</internalNodes>
          <leafValues>
            -3.1423300504684448e-01 5.5614233016967773e-01</leafValues></_>
        <_>
          <internalNodes>
            0 -1 144 1.3455327600240707e-02</internalNodes>
          <leafValues>
            2.5086051225662231e-01 -7.5255703926086426e-01</leafValues></_>
        <_>
          <internalNodes>
            0 -1 128 -1.4356799511006102e-05</internalNodes>
          <leafValues>
            -5.5449777841567993e-01 2.7256944775581360e-01</leafValues></_>
        <_>
          <internalNodes>
            0 -1 10 2.1743904799222946e-02</internalNodes>
          <leafValues>
            1.5412876009941101e-01 -8.7660855054855347e-01</leafValues></_>
        <_>
          <internalNodes>
            0 -1 105 1.4695178833790123e-05</internalNodes>
          <leafValues>
            3.2254198193550110e-01 -4.7232997417449951e-01</leafValues></_>
        <_>
          <internalNodes>
            0 -1 100 7.7890809625387192e-03</internalNodes>
          <leafValues>
            -2.8677591681480408e-01 6.1391329765319824e-01</leafValues></_>
        <_>
          <internalNodes>
            0 -1 76 -2.5155584808089770e-05</internalNodes>
          <leafValues>
            -6.4255136251449585e-01 2.8216412663459778e-01</leafValues></_>
        <_>
          <internalNodes>
            0 -1 78 3.7039267226646189e-06</internalNodes>
          <leafValues>
            -7.4315506219863892e-01 1.9546808302402496e-01</leafValues></_></weakClassifiers></_>
    <!-- stage 10 -->
    <_>
      <maxWeakCount>11</maxWeakCount>
      <stageThreshold>-1.1773010492324829e+00</stageThreshold>
      <weakClassifiers>
        <_>
          <internalNodes>
            0 -1 45 -1.3399794697761536e-01</internalNodes>
          <leafValues>
            -8.3999997377395630e-01 4.0571427345275879e-01</leafValues></_>
        <_>
          <internalNodes>
            0 -1 18 1.1713521089404821e-03</internalNodes>
          <leafValues>
            -3.7221607565879822e-01 5.1966357231140137e-01</leafValues></_>
        <_>
          <internalNodes>
            0 -1 102 2.2165086120367050e-03</internalNodes>
          <leafValues>
            -5.2482163906097412e-01 3.2331559062004089e-01</leafValues></_>
        <_>
          <internalNodes>
            0 -1 57 2.6941252872347832e-03</internalNodes>
          <leafValues>
            -5.6361138820648193e-01 2.9123139381408691e-01</leafValues></_>
        <_>
          <internalNodes>
            0 -1 133 1.4997674152255058e-03</internalNodes>
          <leafValues>
            -3.2775601744651794e-01 5.2612090110778809e-01</leafValues></_>
        <_>
          <internalNodes>
            0 -1 115 4.6674004988744855e-04</internalNodes>
          <leafValues>
            -3.4026345610618591e-01 5.1418197154998779e-01</leafValues></_>
        <_>
          <internalNodes>
            0 -1 104 3.0425592285610037e-06</internalNodes>
          <leafValues>
            -5.9474897384643555e-01 2.9840621352195740e-01</leafValues></_>
        <_>
          <internalNodes>
            0 -1 152 -1.1954330839216709e-03</internalNodes>
          <leafValues>
            5.6913238763809204e-01 -2.8716433048248291e-01</leafValues></_>
        <_>
          <internalNodes>
            0 -1 137 1.9062599167227745e-03</internalNodes>
          <leafValues>
            -2.3547473549842834e-01 5.6651639938354492e-01</leafValues></_>
        <_>
          <internalNodes>
            0 -1 107 -9.0573630586732179e-06</internalNodes>
          <leafValues>
            -7.5727367401123047e-01 1.8653902411460876e-01</leafValues></_>
        <_>
          <internalNodes>
            0 -1 132 -1.9454095745459199e-03</internalNodes>
          <leafValues>
            -9.1983908414840698e-01 1.1977317929267883e-01</leafValues></_></weakClassifiers></_>
    <!-- stage 11 -->
    <_>
      <maxWeakCount>10</maxWeakCount>
      <stageThreshold>-1.2169456481933594e+00</stageThreshold>
      <weakClassifiers>
        <_>
          <internalNodes>
            0 -1 107 1.1076661394326948e-05</internalNodes>
          <leafValues>
            4.6234819293022156e-01 -4.6849316358566284e-01</leafValues></_>
        <_>
          <internalNodes>
            0 -1 122 -3.4779011912178248e-05</internalNodes>
          <leafValues>
            -3.4748944640159607e-01 4.6142491698265076e-01</leafValues></_>
        <_>
          <internalNodes>
            0 -1 161 6.2146512791514397e-03</internalNodes>
          <leafValues>
            -2.0170520246028900e-01 7.7715814113616943e-01</leafValues></_>
        <_>
          <internalNodes>
            0 -1 90 2.4440535344183445e-04</internalNodes>
          <leafValues>
            -6.5147566795349121e-01 2.4310562014579773e-01</leafValues></_>
        <_>
          <internalNodes>
            0 -1 75 2.4470753851346672e-04</internalNodes>
          <leafValues>
            -6.8031364679336548e-01 2.3844650387763977e-01</leafValues></_>
        <_>
          <internalNodes>
            0 -1 21 2.0895362831652164e-03</internalNodes>
          <leafValues>
            -2.9441076517105103e-01 5.4028016328811646e-01</leafValues></_>
        <_>
          <internalNodes>
            0 -1 59 7.0562823566433508e-06</internalNodes>
          <leafValues>
            -5.3104746341705322e-01 3.1344860792160034e-01</leafValues></_>
        <_>
          <internalNodes>
            0 -1 11 3.3768664579838514e-03</internalNodes>
          <leafValues>
            -7.1966862678527832e-01 2.1382218599319458e-01</leafValues></_>
        <_>
          <internalNodes>
            0 -1 142 -7.2268344229087234e-04</internalNodes>
          <leafValues>
            4.9542656540870667e-01 -3.3831706643104553e-01</leafValues></_>
        <_>
          <internalNodes>
            0 -1 56 3.3022356547007803e-06</internalNodes>
          <leafValues>
            -5.6460046768188477e-01 2.4394038319587708e-01</leafValues></_></weakClassifiers></_>
    <!-- stage 12 -->
    <_>
      <maxWeakCount>10</maxWeakCount>
      <stageThreshold>-1.1863188743591309e+00</stageThreshold>
      <weakClassifiers>
        <_>
          <internalNodes>
            0 -1 16 1.5068271197378635e-02</internalNodes>
          <leafValues>
            4.1783344745635986e-01 -6.8724280595779419e-01</leafValues></_>
        <_>
          <internalNodes>
            0 -1 1 1.2791275046765804e-02</internalNodes>
          <leafValues>
            -3.9701282978057861e-01 4.4438773393630981e-01</leafValues></_>
        <_>
          <internalNodes>
            0 -1 12 1.5780709683895111e-02</internalNodes>
          <leafValues>
            -6.1258769035339355e-01 2.9453483223915100e-01</leafValues></_>
        <_>
          <internalNodes>
            0 -1 148 1.0022200876846910e-03</internalNodes>
          <leafValues>
            -3.6815938353538513e-01 4.6020159125328064e-01</leafValues></_>
        <_>
          <internalNodes>
            0 -1 68 8.6710210889577866e-03</internalNodes>
          <leafValues>
            -2.8386861085891724e-01 5.2354079484939575e-01</leafValues></_>
        <_>
          <internalNodes>
            0 -1 71 8.4479264914989471e-03</internalNodes>
          <leafValues>
            -2.8660029172897339e-01 5.6400960683822632e-01</leafValues></_>
        <_>
          <internalNodes>
            0 -1 143 2.0673925057053566e-02</internalNodes>
          <leafValues>
            1.8009537458419800e-01 -8.3060449361801147e-01</leafValues></_>
        <_>
          <internalNodes>
            0 -1 67 3.9100204594433308e-03</internalNodes>
          <leafValues>
            -2.5729238986968994e-01 6.6797614097595215e-01</leafValues></_>
        <_>
          <internalNodes>
            0 -1 52 4.9960515461862087e-03</internalNodes>
          <leafValues>
            -2.2333353757858276e-01 5.6450742483139038e-01</leafValues></_>
        <_>
          <internalNodes>
            0 -1 141 -3.1183625105768442e-04</internalNodes>
          <leafValues>
            5.3571093082427979e-01 -2.6251548528671265e-01</leafValues></_></weakClassifiers></_>
    <!-- stage 13 -->
    <_>
      <maxWeakCount>10</maxWeakCount>
      <stageThreshold>-9.1529810428619385e-01</stageThreshold>
      <weakClassifiers>
        <_>
          <internalNodes>
            0 -1 106 -6.9712652475573123e-05</internalNodes>
          <leafValues>
            -7.7777779102325439e-01 4.0272793173789978e-01</leafValues></_>
        <_>
          <internalNodes>
            0 -1 77 1.4667977666249499e-05</internalNodes>
          <leafValues>
            3.8365074992179871e-01 -4.1171479225158691e-01</leafValues></_>
        <_>
          <internalNodes>
            0 -1 8 1.9034836441278458e-02</internalNodes>
          <leafValues>
            -2.0531183481216431e-01 7.8293806314468384e-01</leafValues></_>
        <_>
          <internalNodes>
            0 -1 149 4.3550771079026163e-04</internalNodes>
          <leafValues>
            -4.2087802290916443e-01 3.8878282904624939e-01</leafValues></_>
        <_>
          <internalNodes>
            0 -1 146 -1.0076079051941633e-03</internalNodes>
          <leafValues>
            4.8405826091766357e-01 -2.7479568123817444e-01</leafValues></_>
        <_>
          <internalNodes>
            0 -1 62 5.5846253417257685e-06</internalNodes>
          <leafValues>
            -5.1643723249435425e-01 2.6669251918792725e-01</leafValues></_>
        <_>
          <internalNodes>
            0 -1 134 9.3381088227033615e-03</internalNodes>
          <leafValues>
            1.8222860991954803e-01 -7.7231496572494507e-01</leafValues></_>
        <_>
          <internalNodes>
            0 -1 35 -1.4775982126593590e-02</internalNodes>
          <leafValues>
            -6.0155785083770752e-01 2.1512621641159058e-01</leafValues></_>
        <_>
          <internalNodes>
            0 -1 140 2.5995830073952675e-03</internalNodes>
          <leafValues>
            -2.5407844781875610e-01 5.7058507204055786e-01</leafValues></_>
        <_>
          <internalNodes>
            0 -1 130 -2.9446262487908825e-05</internalNodes>
          <leafValues>
            -4.2753037810325623e-01 3.7775379419326782e-01</leafValues></_></weakClassifiers></_>
    <!-- stage 14 -->
    <_>
      <maxWeakCount>9</maxWeakCount>
      <stageThreshold>-7.5857067108154297e-01</stageThreshold>
      <weakClassifiers>
        <_>
          <internalNodes>
            0 -1 89 1.4204261824488640e-03</internalNodes>
          <leafValues>
            -5.8139532804489136e-01 4.4264820218086243e-01</leafValues></_>
        <_>
          <internalNodes>
            0 -1 44 4.5860226964578032e-04</internalNodes>
          <leafValues>
            -5.7390475273132324e-01 2.9457849264144897e-01</leafValues></_>
        <_>
          <internalNodes>
            0 -1 87 3.6773696541786194e-02</internalNodes>
          <leafValues>
            -5.3461223840713501e-01 3.2555150985717773e-01</leafValues></_>
        <_>
          <internalNodes>
            0 -1 29 -7.4054882861673832e-04</internalNodes>
          <leafValues>
            5.0219690799713135e-01 -3.2209041714668274e-01</leafValues></_>
        <_>
          <internalNodes>
            0 -1 17 1.8470369279384613e-02</internalNodes>
          <leafValues>
            2.1407406032085419e-01 -7.2433382272720337e-01</leafValues></_>
        <_>
          <internalNodes>
            0 -1 88 3.1334813684225082e-03</internalNodes>
          <leafValues>
            1.4868316054344177e-01 -8.3482259511947632e-01</leafValues></_>
        <_>
          <internalNodes>
            0 -1 151 1.6562793171033263e-03</internalNodes>
          <leafValues>
            1.0709780454635620e-01 -8.5758066177368164e-01</leafValues></_>
        <_>
          <internalNodes>
            0 -1 13 6.8637877702713013e-03</internalNodes>
          <leafValues>
            -2.2714504599571228e-01 6.2898272275924683e-01</leafValues></_>
        <_>
          <internalNodes>
            0 -1 48 7.3978863656520844e-04</internalNodes>
          <leafValues>
            -7.1792489290237427e-01 2.1282027661800385e-01</leafValues></_></weakClassifiers></_>
    <!-- stage 15 -->
    <_>
      <maxWeakCount>12</maxWeakCount>
      <stageThreshold>-1.0151079893112183e+00</stageThreshold>
      <weakClassifiers>
        <_>
          <internalNodes>
            0 -1 81 -4.2217474401695654e-05</internalNodes>
          <leafValues>
            -6.1151081323623657e-01 4.3116489052772522e-01</leafValues></_>
        <_>
          <internalNodes>
            0 -1 166 -6.9542094133794308e-03</internalNodes>
          <leafValues>
            4.7497642040252686e-01 -2.9055315256118774e-01</leafValues></_>
        <_>
          <internalNodes>
            0 -1 124 3.2201925932895392e-05</internalNodes>
          <leafValues>
            3.7038844823837280e-01 -3.7039065361022949e-01</leafValues></_>
        <_>
          <internalNodes>
            0 -1 70 3.2626399770379066e-03</internalNodes>
          <leafValues>
            -2.5850874185562134e-01 5.3104317188262939e-01</leafValues></_>
        <_>
          <internalNodes>
            0 -1 64 3.8316366262733936e-03</internalNodes>
          <leafValues>
            -2.7964144945144653e-01 5.1560437679290771e-01</leafValues></_>
        <_>
          <internalNodes>
            0 -1 19 1.9563307432690635e-05</internalNodes>
          <leafValues>
            -5.3048747777938843e-01 2.4296204745769501e-01</leafValues></_>
        <_>
          <internalNodes>
            0 -1 25 7.8152178321033716e-04</internalNodes>
          <leafValues>
            -3.3630812168121338e-01 3.9690002799034119e-01</leafValues></_>
        <_>
          <internalNodes>
            0 -1 83 -2.5718625693116337e-05</internalNodes>
          <leafValues>
            -7.8221291303634644e-01 1.9877703487873077e-01</leafValues></_>
        <_>
          <internalNodes>
            0 -1 158 -9.3991018366068602e-04</internalNodes>
          <leafValues>
            2.8581151366233826e-01 -4.2363807559013367e-01</leafValues></_>
        <_>
          <internalNodes>
            0 -1 156 -8.3067622035741806e-03</internalNodes>
          <leafValues>
            -8.1971246004104614e-01 1.5792101621627808e-01</leafValues></_>
        <_>
          <internalNodes>
            0 -1 159 1.0132678784430027e-02</internalNodes>
          <leafValues>
            -2.5434747338294983e-01 5.9705418348312378e-01</leafValues></_>
        <_>
          <internalNodes>
            0 -1 63 1.2253331020474434e-02</internalNodes>
          <leafValues>
            2.0012499392032623e-01 -8.0436688661575317e-01</leafValues></_></weakClassifiers></_>
    <!-- stage 16 -->
    <_>
      <maxWeakCount>13</maxWeakCount>
      <stageThreshold>-9.3729722499847412e-01</stageThreshold>
      <weakClassifiers>
        <_>
          <internalNodes>
            0 -1 145 -8.8523197919130325e-03</internalNodes>
          <leafValues>
            -6.6129034757614136e-01 4.1715976595878601e-01</leafValues></_>
        <_>
          <internalNodes>
            0 -1 27 1.0289328638464212e-03</internalNodes>
          <leafValues>
            -3.2111796736717224e-01 4.5649775862693787e-01</leafValues></_>
        <_>
          <internalNodes>
            0 -1 40 7.8383445739746094e-02</internalNodes>
          <leafValues>
            -6.4254385232925415e-01 2.7323523163795471e-01</leafValues></_>
        <_>
          <internalNodes>
            0 -1 55 5.2910414524376392e-05</internalNodes>
          <leafValues>
            -5.5656278133392334e-01 2.4524870514869690e-01</leafValues></_>
        <_>
          <internalNodes>
            0 -1 164 -5.8653550222516060e-03</internalNodes>
          <leafValues>
            5.5719602108001709e-01 -2.6196688413619995e-01</leafValues></_>
        <_>
          <internalNodes>
            0 -1 155 1.0667214170098305e-02</internalNodes>
          <leafValues>
            -1.8605457246303558e-01 7.1410900354385376e-01</leafValues></_>
        <_>
          <internalNodes>
            0 -1 150 2.4446658790111542e-03</internalNodes>
          <leafValues>
            -2.9472336173057556e-01 4.8554778099060059e-01</leafValues></_>
        <_>
          <internalNodes>
            0 -1 39 -1.1768527328968048e-02</internalNodes>
          <leafValues>
            6.5925002098083496e-01 -1.8073442578315735e-01</leafValues></_>
        <_>
          <internalNodes>
            0 -1 103 1.1425724551372696e-05</internalNodes>
          <leafValues>
            2.9557922482490540e-01 -4.0482601523399353e-01</leafValues></_>
        <_>
          <internalNodes>
            0 -1 101 7.8383581712841988e-03</internalNodes>
          <leafValues>
            -1.9165843725204468e-01 6.6319608688354492e-01</leafValues></_>
        <_>
          <internalNodes>
            0 -1 54 3.8446456892415881e-04</internalNodes>
          <leafValues>
            -5.4149347543716431e-01 3.3134335279464722e-01</leafValues></_>
        <_>
          <internalNodes>
            0 -1 46 -1.6431952826678753e-04</internalNodes>
          <leafValues>
            4.7482231259346008e-01 -3.1325146555900574e-01</leafValues></_>
        <_>
          <internalNodes>
            0 -1 23 -7.4102273210883141e-03</internalNodes>
          <leafValues>
            -8.6753815412521362e-01 1.7297528684139252e-01</leafValues></_></weakClassifiers></_>
    <!-- stage 17 -->
    <_>
      <maxWeakCount>14</maxWeakCount>
      <stageThreshold>-1.2172125577926636e+00</stageThreshold>
      <weakClassifiers>
        <_>
          <internalNodes>
            0 -1 114 -8.8216009316965938e-04</internalNodes>
          <leafValues>
            -7.4869108200073242e-01 3.8537970185279846e-01</leafValues></_>
        <_>
          <internalNodes>
            0 -1 36 -4.1265517938882113e-04</internalNodes>
          <leafValues>
            4.4240045547485352e-01 -3.2449331879615784e-01</leafValues></_>
        <_>
          <internalNodes>
            0 -1 168 -1.3911304995417595e-03</internalNodes>
          <leafValues>
            4.5235294103622437e-01 -2.8596732020378113e-01</leafValues></_>
        <_>
          <internalNodes>
            0 -1 14 2.8703340794891119e-03</internalNodes>
          <leafValues>
            -2.6292949914932251e-01 5.2415990829467773e-01</leafValues></_>
        <_>
          <internalNodes>
            0 -1 119 -8.9559798652771860e-06</internalNodes>
          <leafValues>
            -6.5304738283157349e-01 2.3776000738143921e-01</leafValues></_>
        <_>
          <internalNodes>
            0 -1 95 3.0017814133316278e-03</internalNodes>
          <leafValues>
            -2.4044598639011383e-01 5.3929644823074341e-01</leafValues></_>
        <_>
          <internalNodes>
            0 -1 79 3.0360347409441601e-06</internalNodes>
          <leafValues>
            -4.7017398476600647e-01 2.5590977072715759e-01</leafValues></_>
        <_>
          <internalNodes>
            0 -1 93 -9.0610365077736787e-06</internalNodes>
          <leafValues>
            -6.6496384143829346e-01 2.3867052793502808e-01</leafValues></_>
        <_>
          <internalNodes>
            0 -1 50 7.4556883191689849e-04</internalNodes>
          <leafValues>
            -6.0157001018524170e-01 2.1184915304183960e-01</leafValues></_>
        <_>
          <internalNodes>
            0 -1 47 -7.7108168625272810e-05</internalNodes>
          <leafValues>
            4.1082981228828430e-01 -3.5349461436271667e-01</leafValues></_>
        <_>
          <internalNodes>
            0 -1 110 3.0346598941832781e-04</internalNodes>
          <leafValues>
            -4.5725831389427185e-01 2.7325639128684998e-01</leafValues></_>
        <_>
          <internalNodes>
            0 -1 136 7.7601661905646324e-04</internalNodes>
          <leafValues>
            -2.6608684659004211e-01 4.6767014265060425e-01</leafValues></_>
        <_>
          <internalNodes>
            0 -1 9 1.1510811746120453e-03</internalNodes>
          <leafValues>
            -1.8917666375637054e-01 6.1656671762466431e-01</leafValues></_>
        <_>
          <internalNodes>
            0 -1 33 1.1411006562411785e-02</internalNodes>
          <leafValues>
            -2.0516982674598694e-01 6.2215656042098999e-01</leafValues></_></weakClassifiers></_>
    <!-- stage 18 -->
    <_>
      <maxWeakCount>12</maxWeakCount>
      <stageThreshold>-8.6818754673004150e-01</stageThreshold>
      <weakClassifiers>
        <_>
          <internalNodes>
            0 -1 5 5.8512901887297630e-03</internalNodes>
          <leafValues>
            -1.0401891171932220e-01 6.4721482992172241e-01</leafValues></_>
        <_>
          <internalNodes>
            0 -1 160 -3.3937916159629822e-03</internalNodes>
          <leafValues>
            4.0071752667427063e-01 -3.5471338033676147e-01</leafValues></_>
        <_>
          <internalNodes>
            0 -1 15 -8.0599077045917511e-03</internalNodes>
          <leafValues>
            6.3612258434295654e-01 -2.1646782755851746e-01</leafValues></_>
        <_>
          <internalNodes>
            0 -1 123 1.1863461622851901e-05</internalNodes>
          <leafValues>
            1.6088156402111053e-01 -8.0138850212097168e-01</leafValues></_>
        <_>
          <internalNodes>
            0 -1 163 1.0054798796772957e-02</internalNodes>
          <leafValues>
            -1.9044587016105652e-01 7.0974880456924438e-01</leafValues></_>
        <_>
          <internalNodes>
            0 -1 126 -3.5017976188100874e-05</internalNodes>
          <leafValues>
            -3.8582432270050049e-01 3.5505598783493042e-01</leafValues></_>
        <_>
          <internalNodes>
            0 -1 66 7.8121870756149292e-03</internalNodes>
          <leafValues>
            -6.4467531442642212e-01 2.4732981622219086e-01</leafValues></_>
        <_>
          <internalNodes>
            0 -1 85 1.3184786439524032e-05</internalNodes>
          <leafValues>
            2.6287016272544861e-01 -4.5438790321350098e-01</leafValues></_>
        <_>
          <internalNodes>
            0 -1 98 -7.1029947139322758e-04</internalNodes>
          <leafValues>
            -7.9388189315795898e-01 1.4248266816139221e-01</leafValues></_>
        <_>
          <internalNodes>
            0 -1 131 8.9215859770774841e-04</internalNodes>
          <leafValues>
            -2.6970216631889343e-01 4.8403161764144897e-01</leafValues></_>
        <_>
          <internalNodes>
            0 -1 96 2.6138508692383766e-03</internalNodes>
          <leafValues>
            -2.2645059227943420e-01 6.1696767807006836e-01</leafValues></_>
        <_>
          <internalNodes>
            0 -1 72 3.0785597573412815e-06</internalNodes>
          <leafValues>
            -3.2133802771568298e-01 3.9792984724044800e-01</leafValues></_></weakClassifiers></_></stages>
  <features>
    <_>
      <rects>
        <_>
          0 6 4 33 -1.</_>
        <_>
          2 6 2 33 2.</_></rects>
      <tilted>0</tilted></_>
    <_>
      <rects>
        <_>
          0 9 6 31 -1.</_>
        <_>
          3 9 3 31 2.</_></rects>
      <tilted>0</tilted></_>
    <_>
      <rects>
        <_>
          0 10 6 32 -1.</_>
        <_>
          3 10 3 32 2.</_></rects>
      <tilted>0</tilted></_>
    <_>
      <rects>
        <_>
          0 11 6 29 -1.</_>
        <_>
          3 11 3 29 2.</_></rects>
      <tilted>0</tilted></_>
    <_>
      <rects>
        <_>
          0 11 6 33 -1.</_>
        <_>
          3 11 3 33 2.</_></rects>
      <tilted>0</tilted></_>
    <_>
      <rects>
        <_>
          0 13 4 26 -1.</_>
        <_>
          2 13 2 26 2.</_></rects>
      <tilted>0</tilted></_>
    <_>
      <rects>
        <_>
          0 15 6 26 -1.</_>
        <_>
          3 15 3 26 2.</_></rects>
      <tilted>0</tilted></_>
    <_>
      <rects>
        <_>
          1 20 48 12 -1.</_>
        <_>
          17 20 16 12 3.</_></rects>
      <tilted>0</tilted></_>
    <_>
      <rects>
        <_>
          2 19 9 17 -1.</_>
        <_>
          5 19 3 17 3.</_></rects>
      <tilted>0</tilted></_>
    <_>
      <rects>
        <_>
          4 21 2 8 -1.</_>
        <_>
          5 21 1 8 2.</_></rects>
      <tilted>0</tilted></_>
    <_>
      <rects>
        <_>
          5 22 44 7 -1.</_>
        <_>
          27 22 22 7 2.</_></rects>
      <tilted>0</tilted></_>
    <_>
      <rects>
        <_>
          6 16 38 12 -1.</_>
        <_>
          6 22 38 6 2.</_></rects>
      <tilted>0</tilted></_>
    <_>
      <rects>
        <_>
          6 18 35 15 -1.</_>
        <_>
          6 23 35 5 3.</_></rects>
      <tilted>0</tilted></_>
    <_>
      <rects>
        <_>
          8 1 34 4 -1.</_>
        <_>
          8 3 34 2 2.</_></rects>
      <tilted>0</tilted></_>
    <_>
      <rects>
        <_>
          8 21 6 8 -1.</_>
        <_>
          10 21 2 8 3.</_></rects>
      <tilted>0</tilted></_>
    <_>
      <rects>
        <_>
          8 46 32 4 -1.</_>
        <_>
          8 48 32 2 2.</_></rects>
      <tilted>0</tilted></_>
    <_>
      <rects>
        <_>
          9 14 8 21 -1.</_>
        <_>
          9 21 8 7 3.</_></rects>
      <tilted>0</tilted></_>
    <_>
      <rects>
        <_>
          9 14 9 24 -1.</_>
        <_>
          9 22 9 8 3.</_></rects>
      <tilted>0</tilted></_>
    <_>
      <rects>
        <_>
          9 22 6 4 -1.</_>
        <_>
          11 22 2 4 3.</_></rects>
      <tilted>0</tilted></_>
    <_>
      <rects>
        <_>
          9 24 33 3 -1.</_>
        <_>
          9 25 33 1 3.</_></rects>
      <tilted>0</tilted></_>
    <_>
      <rects>
        <_>
          9 25 6 3 -1.</_>
        <_>
          11 25 2 3 3.</_></rects>
      <tilted>0</tilted></_>
    <_>
      <rects>
        <_>
          9 30 9 3 -1.</_>
        <_>
          12 30 3 3 3.</_></rects>
      <tilted>0</tilted></_>
    <_>
      <rects>
        <_>
          10 15 20 4 -1.</_>
        <_>
          10 15 10 2 2.</_>
        <_>
          20 17 10 2 2.</_></rects>
      <tilted>0</tilted></_>
    <_>
      <rects>
        <_>
          10 18 8 12 -1.</_>
        <_>
          10 24 8 6 2.</_></rects>
      <tilted>0</tilted></_>
    <_>
      <rects>
        <_>
          10 19 6 5 -1.</_>
        <_>
          12 19 2 5 3.</_></rects>
      <tilted>0</tilted></_>
    <_>
      <rects>
        <_>
          10 26 6 3 -1.</_>
        <_>
          12 26 2 3 3.</_></rects>
      <tilted>0</tilted></_>
    <_>
      <rects>
        <_>
          11 25 18 1 -1.</_>
        <_>
          20 25 9 1 2.</_></rects>
      <tilted>0</tilted></_>
    <_>
      <rects>
        <_>
          11 28 6 6 -1.</_>
        <_>
          11 28 3 3 2.</_>
        <_>
          14 31 3 3 2.</_></rects>
      <tilted>0</tilted></_>
    <_>
      <rects>
        <_>
          11 31 22 7 -1.</_>
        <_>
          22 31 11 7 2.</_></rects>
      <tilted>0</tilted></_>
    <_>
      <rects>
        <_>
          12 17 6 4 -1.</_>
        <_>
          12 17 3 2 2.</_>
        <_>
          15 19 3 2 2.</_></rects>
      <tilted>0</tilted></_>
    <_>
      <rects>
        <_>
          12 19 16 12 -1.</_>
        <_>
          20 19 8 12 2.</_></rects>
      <tilted>0</tilted></_>
    <_>
      <rects>
        <_>
          12 20 6 9 -1.</_>
        <_>
          14 20 2 9 3.</_></rects>
      <tilted>0</tilted></_>
    <_>
      <rects>
        <_>
          12 22 27 16 -1.</_>
        <_>
          12 30 27 8 2.</_></rects>
      <tilted>0</tilted></_>
    <_>
      <rects>
        <_>
          12 24 18 3 -1.</_>
        <_>
          18 24 6 3 3.</_></rects>
      <tilted>0</tilted></_>
    <_>
      <rects>
        <_>
          12 29 6 8 -1.</_>
        <_>
          12 29 3 4 2.</_>
        <_>
          15 33 3 4 2.</_></rects>
      <tilted>0</tilted></_>
    <_>
      <rects>
        <_>
          13 14 26 22 -1.</_>
        <_>
          13 14 13 11 2.</_>
        <_>
          26 25 13 11 2.</_></rects>
      <tilted>0</tilted></_>
    <_>
      <rects>
        <_>
          13 15 6 4 -1.</_>
        <_>
          13 15 3 2 2.</_>
        <_>
          16 17 3 2 2.</_></rects>
      <tilted>0</tilted></_>
    <_>
      <rects>
        <_>
          13 16 19 9 -1.</_>
        <_>
          13 19 19 3 3.</_></rects>
      <tilted>0</tilted></_>
    <_>
      <rects>
        <_>
          13 21 15 9 -1.</_>
        <_>
          18 21 5 9 3.</_></rects>
      <tilted>0</tilted></_>
    <_>
      <rects>
        <_>
          13 44 27 6 -1.</_>
        <_>
          13 47 27 3 2.</_></rects>
      <tilted>0</tilted></_>
    <_>
      <rects>
        <_>
          14 5 18 45 -1.</_>
        <_>
          14 20 18 15 3.</_></rects>
      <tilted>0</tilted></_>
    <_>
      <rects>
        <_>
          14 16 7 22 -1.</_>
        <_>
          14 27 7 11 2.</_></rects>
      <tilted>0</tilted></_>
    <_>
      <rects>
        <_>
          14 24 9 3 -1.</_>
        <_>
          17 24 3 3 3.</_></rects>
      <tilted>0</tilted></_>
    <_>
      <rects>
        <_>
          14 24 24 1 -1.</_>
        <_>
          22 24 8 1 3.</_></rects>
      <tilted>0</tilted></_>
    <_>
      <rects>
        <_>
          14 24 21 6 -1.</_>
        <_>
          14 26 21 2 3.</_></rects>
      <tilted>0</tilted></_>
    <_>
      <rects>
        <_>
          15 13 32 23 -1.</_>
        <_>
          31 13 16 23 2.</_></rects>
      <tilted>0</tilted></_>
    <_>
      <rects>
        <_>
          15 17 4 4 -1.</_>
        <_>
          15 17 2 2 2.</_>
        <_>
          17 19 2 2 2.</_></rects>
      <tilted>0</tilted></_>
    <_>
      <rects>
        <_>
          15 19 4 4 -1.</_>
        <_>
          15 19 2 2 2.</_>
        <_>
          17 21 2 2 2.</_></rects>
      <tilted>0</tilted></_>
    <_>
      <rects>
        <_>
          15 22 19 6 -1.</_>
        <_>
          15 24 19 2 3.</_></rects>
      <tilted>0</tilted></_>
    <_>
      <rects>
        <_>
          16 14 19 14 -1.</_>
        <_>
          16 21 19 7 2.</_></rects>
      <tilted>0</tilted></_>
    <_>
      <rects>
        <_>
          16 21 24 6 -1.</_>
        <_>
          16 23 24 2 3.</_></rects>
      <tilted>0</tilted></_>
    <_>
      <rects>
        <_>
          17 9 13 6 -1.</_>
        <_>
          17 11 13 2 3.</_></rects>
      <tilted>0</tilted></_>
    <_>
      <rects>
        <_>
          17 10 19 6 -1.</_>
        <_>
          17 12 19 2 3.</_></rects>
      <tilted>0</tilted></_>
    <_>
      <rects>
        <_>
          17 12 4 3 -1.</_>
        <_>
          17 13 4 1 3.</_></rects>
      <tilted>0</tilted></_>
    <_>
      <rects>
        <_>
          17 19 21 6 -1.</_>
        <_>
          17 21 21 2 3.</_></rects>
      <tilted>0</tilted></_>
    <_>
      <rects>
        <_>
          17 21 17 3 -1.</_>
        <_>
          17 22 17 1 3.</_></rects>
      <tilted>0</tilted></_>
    <_>
      <rects>
        <_>
          17 23 12 3 -1.</_>
        <_>
          17 24 12 1 3.</_></rects>
      <tilted>0</tilted></_>
    <_>
      <rects>
        <_>
          18 17 9 16 -1.</_>
        <_>
          21 17 3 16 3.</_></rects>
      <tilted>0</tilted></_>
    <_>
      <rects>
        <_>
          18 17 15 16 -1.</_>
        <_>
          23 17 5 16 3.</_></rects>
      <tilted>0</tilted></_>
    <_>
      <rects>
        <_>
          18 20 16 3 -1.</_>
        <_>
          18 21 16 1 3.</_></rects>
      <tilted>0</tilted></_>
    <_>
      <rects>
        <_>
          18 21 13 3 -1.</_>
        <_>
          18 22 13 1 3.</_></rects>
      <tilted>0</tilted></_>
    <_>
      <rects>
        <_>
          18 22 16 6 -1.</_>
        <_>
          18 24 16 2 3.</_></rects>
      <tilted>0</tilted></_>
    <_>
      <rects>
        <_>
          18 28 16 3 -1.</_>
        <_>
          18 29 16 1 3.</_></rects>
      <tilted>0</tilted></_>
    <_>
      <rects>
        <_>
          18 34 18 8 -1.</_>
        <_>
          24 34 6 8 3.</_></rects>
      <tilted>0</tilted></_>
    <_>
      <rects>
        <_>
          18 34 18 6 -1.</_>
        <_>
          18 36 18 2 3.</_></rects>
      <tilted>0</tilted></_>
    <_>
      <rects>
        <_>
          19 12 21 27 -1.</_>
        <_>
          19 21 21 9 3.</_></rects>
      <tilted>0</tilted></_>
    <_>
      <rects>
        <_>
          19 13 12 25 -1.</_>
        <_>
          23 13 4 25 3.</_></rects>
      <tilted>0</tilted></_>
    <_>
      <rects>
        <_>
          19 13 11 6 -1.</_>
        <_>
          19 15 11 2 3.</_></rects>
      <tilted>0</tilted></_>
    <_>
      <rects>
        <_>
          19 26 13 9 -1.</_>
        <_>
          19 29 13 3 3.</_></rects>
      <tilted>0</tilted></_>
    <_>
      <rects>
        <_>
          19 32 15 4 -1.</_>
        <_>
          19 34 15 2 2.</_></rects>
      <tilted>0</tilted></_>
    <_>
      <rects>
        <_>
          19 36 10 6 -1.</_>
        <_>
          19 38 10 2 3.</_></rects>
      <tilted>0</tilted></_>
    <_>
      <rects>
        <_>
          20 15 12 9 -1.</_>
        <_>
          20 18 12 3 3.</_></rects>
      <tilted>0</tilted></_>
    <_>
      <rects>
        <_>
          20 32 2 4 -1.</_>
        <_>
          20 34 2 2 2.</_></rects>
      <tilted>0</tilted></_>
    <_>
      <rects>
        <_>
          21 1 8 48 -1.</_>
        <_>
          21 17 8 16 3.</_></rects>
      <tilted>0</tilted></_>
    <_>
      <rects>
        <_>
          21 9 9 33 -1.</_>
        <_>
          21 20 9 11 3.</_></rects>
      <tilted>0</tilted></_>
    <_>
      <rects>
        <_>
          21 15 6 20 -1.</_>
        <_>
          23 15 2 20 3.</_></rects>
      <tilted>0</tilted></_>
    <_>
      <rects>
        <_>
          21 22 8 3 -1.</_>
        <_>
          21 23 8 1 3.</_></rects>
      <tilted>0</tilted></_>
    <_>
      <rects>
        <_>
          21 25 4 1 -1.</_>
        <_>
          23 25 2 1 2.</_></rects>
      <tilted>0</tilted></_>
    <_>
      <rects>
        <_>
          22 17 6 21 -1.</_>
        <_>
          24 17 2 21 3.</_></rects>
      <tilted>0</tilted></_>
    <_>
      <rects>
        <_>
          22 19 11 3 -1.</_>
        <_>
          22 20 11 1 3.</_></rects>
      <tilted>0</tilted></_>
    <_>
      <rects>
        <_>
          22 20 18 11 -1.</_>
        <_>
          31 20 9 11 2.</_></rects>
      <tilted>0</tilted></_>
    <_>
      <rects>
        <_>
          22 23 3 6 -1.</_>
        <_>
          23 23 1 6 3.</_></rects>
      <tilted>0</tilted></_>
    <_>
      <rects>
        <_>
          22 23 18 16 -1.</_>
        <_>
          22 23 9 8 2.</_>
        <_>
          31 31 9 8 2.</_></rects>
      <tilted>0</tilted></_>
    <_>
      <rects>
        <_>
          22 24 6 2 -1.</_>
        <_>
          24 24 2 2 3.</_></rects>
      <tilted>0</tilted></_>
    <_>
      <rects>
        <_>
          22 24 8 12 -1.</_>
        <_>
          22 28 8 4 3.</_></rects>
      <tilted>0</tilted></_>
    <_>
      <rects>
        <_>
          22 26 4 1 -1.</_>
        <_>
          24 26 2 1 2.</_></rects>
      <tilted>0</tilted></_>
    <_>
      <rects>
        <_>
          22 35 7 6 -1.</_>
        <_>
          22 37 7 2 3.</_></rects>
      <tilted>0</tilted></_>
    <_>
      <rects>
        <_>
          23 3 3 45 -1.</_>
        <_>
          23 18 3 15 3.</_></rects>
      <tilted>0</tilted></_>
    <_>
      <rects>
        <_>
          23 11 4 32 -1.</_>
        <_>
          23 11 2 16 2.</_>
        <_>
          25 27 2 16 2.</_></rects>
      <tilted>0</tilted></_>
    <_>
      <rects>
        <_>
          23 13 9 20 -1.</_>
        <_>
          26 13 3 20 3.</_></rects>
      <tilted>0</tilted></_>
    <_>
      <rects>
        <_>
          23 15 6 15 -1.</_>
        <_>
          25 15 2 15 3.</_></rects>
      <tilted>0</tilted></_>
    <_>
      <rects>
        <_>
          23 22 6 5 -1.</_>
        <_>
          25 22 2 5 3.</_></rects>
      <tilted>0</tilted></_>
    <_>
      <rects>
        <_>
          23 23 3 4 -1.</_>
        <_>
          24 23 1 4 3.</_></rects>
      <tilted>0</tilted></_>
    <_>
      <rects>
        <_>
          23 24 3 5 -1.</_>
        <_>
          24 24 1 5 3.</_></rects>
      <tilted>0</tilted></_>
    <_>
      <rects>
        <_>
          23 25 2 1 -1.</_>
        <_>
          24 25 1 1 2.</_></rects>
      <tilted>0</tilted></_>
    <_>
      <rects>
        <_>
          23 26 2 9 -1.</_>
        <_>
          23 29 2 3 3.</_></rects>
      <tilted>0</tilted></_>
    <_>
      <rects>
        <_>
          23 30 5 6 -1.</_>
        <_>
          23 32 5 2 3.</_></rects>
      <tilted>0</tilted></_>
    <_>
      <rects>
        <_>
          24 7 2 36 -1.</_>
        <_>
          24 19 2 12 3.</_></rects>
      <tilted>0</tilted></_>
    <_>
      <rects>
        <_>
          24 11 2 22 -1.</_>
        <_>
          24 11 1 11 2.</_>
        <_>
          25 22 1 11 2.</_></rects>
      <tilted>0</tilted></_>
    <_>
      <rects>
        <_>
          24 13 2 16 -1.</_>
        <_>
          24 21 2 8 2.</_></rects>
      <tilted>0</tilted></_>
    <_>
      <rects>
        <_>
          24 18 3 12 -1.</_>
        <_>
          24 24 3 6 2.</_></rects>
      <tilted>0</tilted></_>
    <_>
      <rects>
        <_>
          24 18 3 14 -1.</_>
        <_>
          24 25 3 7 2.</_></rects>
      <tilted>0</tilted></_>
    <_>
      <rects>
        <_>
          24 18 9 15 -1.</_>
        <_>
          27 18 3 15 3.</_></rects>
      <tilted>0</tilted></_>
    <_>
      <rects>
        <_>
          24 20 2 2 -1.</_>
        <_>
          24 21 2 1 2.</_></rects>
      <tilted>0</tilted></_>
    <_>
      <rects>
        <_>
          24 21 3 13 -1.</_>
        <_>
          25 21 1 13 3.</_></rects>
      <tilted>0</tilted></_>
    <_>
      <rects>
        <_>
          24 21 2 2 -1.</_>
        <_>
          24 22 2 1 2.</_></rects>
      <tilted>0</tilted></_>
    <_>
      <rects>
        <_>
          24 23 6 5 -1.</_>
        <_>
          26 23 2 5 3.</_></rects>
      <tilted>0</tilted></_>
    <_>
      <rects>
        <_>
          24 24 2 1 -1.</_>
        <_>
          25 24 1 1 2.</_></rects>
      <tilted>0</tilted></_>
    <_>
      <rects>
        <_>
          24 24 2 2 -1.</_>
        <_>
          24 25 2 1 2.</_></rects>
      <tilted>0</tilted></_>
    <_>
      <rects>
        <_>
          24 24 3 3 -1.</_>
        <_>
          24 25 3 1 3.</_></rects>
      <tilted>0</tilted></_>
    <_>
      <rects>
        <_>
          24 24 13 6 -1.</_>
        <_>
          24 26 13 2 3.</_></rects>
      <tilted>0</tilted></_>
    <_>
      <rects>
        <_>
          24 25 3 2 -1.</_>
        <_>
          24 26 3 1 2.</_></rects>
      <tilted>0</tilted></_>
    <_>
      <rects>
        <_>
          24 29 3 6 -1.</_>
        <_>
          24 31 3 2 3.</_></rects>
      <tilted>0</tilted></_>
    <_>
      <rects>
        <_>
          24 35 3 6 -1.</_>
        <_>
          24 37 3 2 3.</_></rects>
      <tilted>0</tilted></_>
    <_>
      <rects>
        <_>
          25 14 2 26 -1.</_>
        <_>
          25 14 1 13 2.</_>
        <_>
          26 27 1 13 2.</_></rects>
      <tilted>0</tilted></_>
    <_>
      <rects>
        <_>
          25 16 1 6 -1.</_>
        <_>
          25 18 1 2 3.</_></rects>
      <tilted>0</tilted></_>
    <_>
      <rects>
        <_>
          25 17 6 17 -1.</_>
        <_>
          27 17 2 17 3.</_></rects>
      <tilted>0</tilted></_>
    <_>
      <rects>
        <_>
          25 23 1 3 -1.</_>
        <_>
          25 24 1 1 3.</_></rects>
      <tilted>0</tilted></_>
    <_>
      <rects>
        <_>
          25 23 12 3 -1.</_>
        <_>
          29 23 4 3 3.</_></rects>
      <tilted>0</tilted></_>
    <_>
      <rects>
        <_>
          25 24 2 2 -1.</_>
        <_>
          26 24 1 2 2.</_></rects>
      <tilted>0</tilted></_>
    <_>
      <rects>
        <_>
          25 25 2 1 -1.</_>
        <_>
          26 25 1 1 2.</_></rects>
      <tilted>0</tilted></_>
    <_>
      <rects>
        <_>
          25 25 3 1 -1.</_>
        <_>
          26 25 1 1 3.</_></rects>
      <tilted>0</tilted></_>
    <_>
      <rects>
        <_>
          25 25 6 2 -1.</_>
        <_>
          28 25 3 2 2.</_></rects>
      <tilted>0</tilted></_>
    <_>
      <rects>
        <_>
          25 26 2 2 -1.</_>
        <_>
          25 27 2 1 2.</_></rects>
      <tilted>0</tilted></_>
    <_>
      <rects>
        <_>
          26 21 2 4 -1.</_>
        <_>
          26 23 2 2 2.</_></rects>
      <tilted>0</tilted></_>
    <_>
      <rects>
        <_>
          26 21 10 6 -1.</_>
        <_>
          26 23 10 2 3.</_></rects>
      <tilted>0</tilted></_>
    <_>
      <rects>
        <_>
          26 22 4 2 -1.</_>
        <_>
          28 22 2 2 2.</_></rects>
      <tilted>0</tilted></_>
    <_>
      <rects>
        <_>
          26 24 2 2 -1.</_>
        <_>
          27 24 1 2 2.</_></rects>
      <tilted>0</tilted></_>
    <_>
      <rects>
        <_>
          26 25 2 1 -1.</_>
        <_>
          27 25 1 1 2.</_></rects>
      <tilted>0</tilted></_>
    <_>
      <rects>
        <_>
          27 19 9 13 -1.</_>
        <_>
          30 19 3 13 3.</_></rects>
      <tilted>0</tilted></_>
    <_>
      <rects>
        <_>
          27 24 4 1 -1.</_>
        <_>
          29 24 2 1 2.</_></rects>
      <tilted>0</tilted></_>
    <_>
      <rects>
        <_>
          27 33 3 6 -1.</_>
        <_>
          27 35 3 2 3.</_></rects>
      <tilted>0</tilted></_>
    <_>
      <rects>
        <_>
          27 34 4 8 -1.</_>
        <_>
          29 34 2 8 2.</_></rects>
      <tilted>0</tilted></_>
    <_>
      <rects>
        <_>
          27 35 5 6 -1.</_>
        <_>
          27 37 5 2 3.</_></rects>
      <tilted>0</tilted></_>
    <_>
      <rects>
        <_>
          30 17 8 20 -1.</_>
        <_>
          30 27 8 10 2.</_></rects>
      <tilted>0</tilted></_>
    <_>
      <rects>
        <_>
          30 23 6 3 -1.</_>
        <_>
          32 23 2 3 3.</_></rects>
      <tilted>0</tilted></_>
    <_>
      <rects>
        <_>
          31 15 6 4 -1.</_>
        <_>
          31 15 3 2 2.</_>
        <_>
          34 17 3 2 2.</_></rects>
      <tilted>0</tilted></_>
    <_>
      <rects>
        <_>
          31 22 6 8 -1.</_>
        <_>
          33 22 2 8 3.</_></rects>
      <tilted>0</tilted></_>
    <_>
      <rects>
        <_>
          31 31 6 6 -1.</_>
        <_>
          31 31 3 3 2.</_>
        <_>
          34 34 3 3 2.</_></rects>
      <tilted>0</tilted></_>
    <_>
      <rects>
        <_>
          32 20 9 16 -1.</_>
        <_>
          32 28 9 8 2.</_></rects>
      <tilted>0</tilted></_>
    <_>
      <rects>
        <_>
          32 21 6 7 -1.</_>
        <_>
          34 21 2 7 3.</_></rects>
      <tilted>0</tilted></_>
    <_>
      <rects>
        <_>
          32 29 4 4 -1.</_>
        <_>
          32 29 2 2 2.</_>
        <_>
          34 31 2 2 2.</_></rects>
      <tilted>0</tilted></_>
    <_>
      <rects>
        <_>
          32 31 6 4 -1.</_>
        <_>
          32 31 3 2 2.</_>
        <_>
          35 33 3 2 2.</_></rects>
      <tilted>0</tilted></_>
    <_>
      <rects>
        <_>
          33 13 8 24 -1.</_>
        <_>
          33 21 8 8 3.</_></rects>
      <tilted>0</tilted></_>
    <_>
      <rects>
        <_>
          33 14 9 20 -1.</_>
        <_>
          33 24 9 10 2.</_></rects>
      <tilted>0</tilted></_>
    <_>
      <rects>
        <_>
          33 21 8 14 -1.</_>
        <_>
          33 28 8 7 2.</_></rects>
      <tilted>0</tilted></_>
    <_>
      <rects>
        <_>
          33 28 6 6 -1.</_>
        <_>
          33 28 3 3 2.</_>
        <_>
          36 31 3 3 2.</_></rects>
      <tilted>0</tilted></_>
    <_>
      <rects>
        <_>
          34 18 6 2 -1.</_>
        <_>
          34 18 3 1 2.</_>
        <_>
          37 19 3 1 2.</_></rects>
      <tilted>0</tilted></_>
    <_>
      <rects>
        <_>
          35 16 4 8 -1.</_>
        <_>
          35 16 2 4 2.</_>
        <_>
          37 20 2 4 2.</_></rects>
      <tilted>0</tilted></_>
    <_>
      <rects>
        <_>
          35 19 6 3 -1.</_>
        <_>
          37 19 2 3 3.</_></rects>
      <tilted>0</tilted></_>
    <_>
      <rects>
        <_>
          35 22 6 9 -1.</_>
        <_>
          37 22 2 9 3.</_></rects>
      <tilted>0</tilted></_>
    <_>
      <rects>
        <_>
          35 23 6 6 -1.</_>
        <_>
          35 25 6 2 3.</_></rects>
      <tilted>0</tilted></_>
    <_>
      <rects>
        <_>
          35 26 4 8 -1.</_>
        <_>
          35 26 2 4 2.</_>
        <_>
          37 30 2 4 2.</_></rects>
      <tilted>0</tilted></_>
    <_>
      <rects>
        <_>
          35 28 6 3 -1.</_>
        <_>
          37 28 2 3 3.</_></rects>
      <tilted>0</tilted></_>
    <_>
      <rects>
        <_>
          36 23 6 3 -1.</_>
        <_>
          38 23 2 3 3.</_></rects>
      <tilted>0</tilted></_>
    <_>
      <rects>
        <_>
          37 21 9 9 -1.</_>
        <_>
          40 21 3 9 3.</_></rects>
      <tilted>0</tilted></_>
    <_>
      <rects>
        <_>
          37 21 9 12 -1.</_>
        <_>
          37 25 9 4 3.</_></rects>
      <tilted>0</tilted></_>
    <_>
      <rects>
        <_>
          37 23 9 7 -1.</_>
        <_>
          40 23 3 7 3.</_></rects>
      <tilted>0</tilted></_>
    <_>
      <rects>
        <_>
          38 18 12 18 -1.</_>
        <_>
          38 24 12 6 3.</_></rects>
      <tilted>0</tilted></_>
    <_>
      <rects>
        <_>
          39 21 9 8 -1.</_>
        <_>
          42 21 3 8 3.</_></rects>
      <tilted>0</tilted></_>
    <_>
      <rects>
        <_>
          40 14 9 24 -1.</_>
        <_>
          40 22 9 8 3.</_></rects>
      <tilted>0</tilted></_>
    <_>
      <rects>
        <_>
          41 21 6 8 -1.</_>
        <_>
          43 21 2 8 3.</_></rects>
      <tilted>0</tilted></_>
    <_>
      <rects>
        <_>
          44 15 6 21 -1.</_>
        <_>
          47 15 3 21 2.</_></rects>
      <tilted>0</tilted></_>
    <_>
      <rects>
        <_>
          45 5 1 39 -1.</_>
        <_>
          45 18 1 13 3.</_></rects>
      <tilted>0</tilted></_>
    <_>
      <rects>
        <_>
          45 16 4 16 -1.</_>
        <_>
          47 16 2 16 2.</_></rects>
      <tilted>0</tilted></_>
    <_>
      <rects>
        <_>
          46 8 4 33 -1.</_>
        <_>
          48 8 2 33 2.</_></rects>
      <tilted>0</tilted></_>
    <_>
      <rects>
        <_>
          46 10 4 28 -1.</_>
        <_>
          48 10 2 28 2.</_></rects>
      <tilted>0</tilted></_>
    <_>
      <rects>
        <_>
          46 12 4 27 -1.</_>
        <_>
          48 12 2 27 2.</_></rects>
      <tilted>0</tilted></_>
    <_>
      <rects>
        <_>
          48 14 2 25 -1.</_>
        <_>
          49 14 1 25 2.</_></rects>
      <tilted>0</tilted></_></features></cascade>
</opencv_storage>
