<?xml version="1.0"?>
<opencv_storage>
<cascade>
  <stageType>BOOST</stageType>
  <featureType>HAAR</featureType>
  <height>16</height>
  <width>16</width>
  <stageParams>
    <boostType>GAB</boostType>
    <minHitRate>9.9900001287460327e-01</minHitRate>
    <maxFalseAlarm>5.0000000000000000e-01</maxFalseAlarm>
    <weightTrimRate>9.4999999999999996e-01</weightTrimRate>
    <maxDepth>1</maxDepth>
    <maxWeakCount>100</maxWeakCount></stageParams>
  <featureParams>
    <maxCatCount>0</maxCatCount>
    <featSize>1</featSize>
    <mode>BASIC</mode></featureParams>
  <stageNum>15</stageNum>
  <stages>
    <!-- stage 0 -->
    <_>
      <maxWeakCount>3</maxWeakCount>
      <stageThreshold>-8.4623128175735474e-01</stageThreshold>
      <weakClassifiers>
        <_>
          <internalNodes>
            0 -1 7 1.9649546593427658e-02</internalNodes>
          <leafValues>
            -8.4405457973480225e-01 7.6632934808731079e-01</leafValues></_>
        <_>
          <internalNodes>
            0 -1 74 -1.2588644400238991e-02</internalNodes>
          <leafValues>
            6.9402003288269043e-01 -8.1643778085708618e-01</leafValues></_>
        <_>
          <internalNodes>
            0 -1 22 9.0177491307258606e-02</internalNodes>
          <leafValues>
            -6.8651074171066284e-01 8.1426107883453369e-01</leafValues></_></weakClassifiers></_>
    <!-- stage 1 -->
    <_>
      <maxWeakCount>4</maxWeakCount>
      <stageThreshold>-1.4663699865341187e+00</stageThreshold>
      <weakClassifiers>
        <_>
          <internalNodes>
            0 -1 45 -7.2213858366012573e-02</internalNodes>
          <leafValues>
            7.7369439601898193e-01 -7.0671379566192627e-01</leafValues></_>
        <_>
          <internalNodes>
            0 -1 80 1.8364116549491882e-02</internalNodes>
          <leafValues>
            -9.2431557178497314e-01 6.0424578189849854e-01</leafValues></_>
        <_>
          <internalNodes>
            0 -1 16 -2.6892971247434616e-02</internalNodes>
          <leafValues>
            7.0789974927902222e-01 -6.8574011325836182e-01</leafValues></_>
        <_>
          <internalNodes>
            0 -1 87 6.4564608037471771e-02</internalNodes>
          <leafValues>
            -6.3000869750976562e-01 6.5433228015899658e-01</leafValues></_></weakClassifiers></_>
    <!-- stage 2 -->
    <_>
      <maxWeakCount>5</maxWeakCount>
      <stageThreshold>-1.0342582464218140e+00</stageThreshold>
      <weakClassifiers>
        <_>
          <internalNodes>
            0 -1 38 -1.8694255501031876e-02</internalNodes>
          <leafValues>
            6.5979379415512085e-01 -8.4403669834136963e-01</leafValues></_>
        <_>
          <internalNodes>
            0 -1 27 6.8341016769409180e-02</internalNodes>
          <leafValues>
            -6.6957992315292358e-01 6.3556462526321411e-01</leafValues></_>
        <_>
          <internalNodes>
            0 -1 44 -9.8537124693393707e-02</internalNodes>
          <leafValues>
            5.6418412923812866e-01 -6.7266923189163208e-01</leafValues></_>
        <_>
          <internalNodes>
            0 -1 121 -8.2138087600469589e-03</internalNodes>
          <leafValues>
            6.3679760694503784e-01 -5.0456595420837402e-01</leafValues></_>
        <_>
          <internalNodes>
            0 -1 29 -1.2557889334857464e-02</internalNodes>
          <leafValues>
            5.1523000001907349e-01 -5.8404910564422607e-01</leafValues></_></weakClassifiers></_>
    <!-- stage 3 -->
    <_>
      <maxWeakCount>7</maxWeakCount>
      <stageThreshold>-1.4776985645294189e+00</stageThreshold>
      <weakClassifiers>
        <_>
          <internalNodes>
            0 -1 4 3.4689281135797501e-02</internalNodes>
          <leafValues>
            -7.3664122819900513e-01 7.3048329353332520e-01</leafValues></_>
        <_>
          <internalNodes>
            0 -1 108 -3.0455796048045158e-02</internalNodes>
          <leafValues>
            6.0929024219512939e-01 -6.2339615821838379e-01</leafValues></_>
        <_>
          <internalNodes>
            0 -1 52 -4.0665427222847939e-03</internalNodes>
          <leafValues>
            3.6760112643241882e-01 -8.4605562686920166e-01</leafValues></_>
        <_>
          <internalNodes>
            0 -1 97 1.7390987277030945e-01</internalNodes>
          <leafValues>
            -4.9972924590110779e-01 7.5357419252395630e-01</leafValues></_>
        <_>
          <internalNodes>
            0 -1 2 8.6413159966468811e-02</internalNodes>
          <leafValues>
            -5.5416375398635864e-01 5.6128168106079102e-01</leafValues></_>
        <_>
          <internalNodes>
            0 -1 114 2.8413423569872975e-04</internalNodes>
          <leafValues>
            3.1076815724372864e-01 -8.2053226232528687e-01</leafValues></_>
        <_>
          <internalNodes>
            0 -1 115 -2.3623241577297449e-04</internalNodes>
          <leafValues>
            -8.5758286714553833e-01 3.1586459279060364e-01</leafValues></_></weakClassifiers></_>
    <!-- stage 4 -->
    <_>
      <maxWeakCount>8</maxWeakCount>
      <stageThreshold>-1.7230179309844971e+00</stageThreshold>
      <weakClassifiers>
        <_>
          <internalNodes>
            0 -1 10 1.3631049543619156e-02</internalNodes>
          <leafValues>
            -7.6991152763366699e-01 6.5156793594360352e-01</leafValues></_>
        <_>
          <internalNodes>
            0 -1 71 1.0946357622742653e-02</internalNodes>
          <leafValues>
            -7.8501963615417480e-01 4.9399948120117188e-01</leafValues></_>
        <_>
          <internalNodes>
            0 -1 44 -1.2505854666233063e-01</internalNodes>
          <leafValues>
            5.1837795972824097e-01 -5.7875847816467285e-01</leafValues></_>
        <_>
          <internalNodes>
            0 -1 83 2.8493122954387218e-05</internalNodes>
          <leafValues>
            -6.8565630912780762e-01 4.3585738539695740e-01</leafValues></_>
        <_>
          <internalNodes>
            0 -1 55 2.6360714400652796e-05</internalNodes>
          <leafValues>
            -5.7350492477416992e-01 4.3249258399009705e-01</leafValues></_>
        <_>
          <internalNodes>
            0 -1 60 -5.4460121318697929e-03</internalNodes>
          <leafValues>
            2.9491701722145081e-01 -8.4222590923309326e-01</leafValues></_>
        <_>
          <internalNodes>
            0 -1 26 5.0140991806983948e-02</internalNodes>
          <leafValues>
            -3.9560630917549133e-01 6.2437617778778076e-01</leafValues></_>
        <_>
          <internalNodes>
            0 -1 70 2.8785362839698792e-02</internalNodes>
          <leafValues>
            -3.9221367239952087e-01 6.7338567972183228e-01</leafValues></_></weakClassifiers></_>
    <!-- stage 5 -->
    <_>
      <maxWeakCount>5</maxWeakCount>
      <stageThreshold>-1.3449828624725342e+00</stageThreshold>
      <weakClassifiers>
        <_>
          <internalNodes>
            0 -1 57 2.9963603083160706e-05</internalNodes>
          <leafValues>
            -6.2894248962402344e-01 6.9651269912719727e-01</leafValues></_>
        <_>
          <internalNodes>
            0 -1 32 2.5791727239266038e-05</internalNodes>
          <leafValues>
            -7.1915733814239502e-01 5.3117847442626953e-01</leafValues></_>
        <_>
          <internalNodes>
            0 -1 68 7.2600567364133894e-05</internalNodes>
          <leafValues>
            -6.0776567459106445e-01 5.3504264354705811e-01</leafValues></_>
        <_>
          <internalNodes>
            0 -1 85 4.1969131416408345e-05</internalNodes>
          <leafValues>
            -9.3236929178237915e-01 3.7133929133415222e-01</leafValues></_>
        <_>
          <internalNodes>
            0 -1 113 -4.7027054824866354e-04</internalNodes>
          <leafValues>
            2.3954336345195770e-01 -8.4034705162048340e-01</leafValues></_></weakClassifiers></_>
    <!-- stage 6 -->
    <_>
      <maxWeakCount>12</maxWeakCount>
      <stageThreshold>-1.9150216579437256e+00</stageThreshold>
      <weakClassifiers>
        <_>
          <internalNodes>
            0 -1 9 1.9900642335414886e-02</internalNodes>
          <leafValues>
            -5.8198195695877075e-01 6.9186604022979736e-01</leafValues></_>
        <_>
          <internalNodes>
            0 -1 67 -2.8966148383915424e-03</internalNodes>
          <leafValues>
            4.3626254796981812e-01 -8.2151788473129272e-01</leafValues></_>
        <_>
          <internalNodes>
            0 -1 48 1.0514305531978607e-01</internalNodes>
          <leafValues>
            -5.5165100097656250e-01 4.6106421947479248e-01</leafValues></_>
        <_>
          <internalNodes>
            0 -1 56 7.9400725662708282e-03</internalNodes>
          <leafValues>
            -4.5752122998237610e-01 4.7209498286247253e-01</leafValues></_>
        <_>
          <internalNodes>
            0 -1 68 5.5931217502802610e-04</internalNodes>
          <leafValues>
            -4.6334040164947510e-01 4.6641871333122253e-01</leafValues></_>
        <_>
          <internalNodes>
            0 -1 101 5.0213374197483063e-04</internalNodes>
          <leafValues>
            1.9501781463623047e-01 -8.2642734050750732e-01</leafValues></_>
        <_>
          <internalNodes>
            0 -1 101 -1.2520176824182272e-04</internalNodes>
          <leafValues>
            -6.9546926021575928e-01 2.4981811642646790e-01</leafValues></_>
        <_>
          <internalNodes>
            0 -1 17 -9.7285155206918716e-03</internalNodes>
          <leafValues>
            -8.6335831880569458e-01 2.0024296641349792e-01</leafValues></_>
        <_>
          <internalNodes>
            0 -1 72 -5.1995692774653435e-04</internalNodes>
          <leafValues>
            3.6925655603408813e-01 -5.2782326936721802e-01</leafValues></_>
        <_>
          <internalNodes>
            0 -1 39 -1.9342333078384399e-01</internalNodes>
          <leafValues>
            4.9865406751632690e-01 -4.3147167563438416e-01</leafValues></_>
        <_>
          <internalNodes>
            0 -1 60 -5.3165638819336891e-03</internalNodes>
          <leafValues>
            2.4797677993774414e-01 -8.1857031583786011e-01</leafValues></_>
        <_>
          <internalNodes>
            0 -1 109 1.4229170046746731e-03</internalNodes>
          <leafValues>
            1.1277552694082260e-01 -1.</leafValues></_></weakClassifiers></_>
    <!-- stage 7 -->
    <_>
      <maxWeakCount>12</maxWeakCount>
      <stageThreshold>-1.9717931747436523e+00</stageThreshold>
      <weakClassifiers>
        <_>
          <internalNodes>
            0 -1 116 -3.1363114248961210e-04</internalNodes>
          <leafValues>
            -6.0270881652832031e-01 5.7649093866348267e-01</leafValues></_>
        <_>
          <internalNodes>
            0 -1 116 1.2499440344981849e-04</internalNodes>
          <leafValues>
            3.2366800308227539e-01 -9.5088064670562744e-01</leafValues></_>
        <_>
          <internalNodes>
            0 -1 47 1.2203173339366913e-01</internalNodes>
          <leafValues>
            -4.6288052201271057e-01 5.1416385173797607e-01</leafValues></_>
        <_>
          <internalNodes>
            0 -1 8 1.5511929988861084e-02</internalNodes>
          <leafValues>
            -2.9062858223915100e-01 7.1259850263595581e-01</leafValues></_>
        <_>
          <internalNodes>
            0 -1 106 -4.3611571192741394e-02</internalNodes>
          <leafValues>
            4.0513551235198975e-01 -4.9967262148857117e-01</leafValues></_>
        <_>
          <internalNodes>
            0 -1 21 -1.6808645799756050e-02</internalNodes>
          <leafValues>
            -8.5450315475463867e-01 1.9512149691581726e-01</leafValues></_>
        <_>
          <internalNodes>
            0 -1 5 6.2053095549345016e-02</internalNodes>
          <leafValues>
            -7.5329023599624634e-01 2.2430318593978882e-01</leafValues></_>
        <_>
          <internalNodes>
            0 -1 117 1.5640066703781486e-04</internalNodes>
          <leafValues>
            1.9410732388496399e-01 -8.5778415203094482e-01</leafValues></_>
        <_>
          <internalNodes>
            0 -1 75 7.2010594885796309e-04</internalNodes>
          <leafValues>
            -6.9308125972747803e-01 2.1360769867897034e-01</leafValues></_>
        <_>
          <internalNodes>
            0 -1 98 5.1646732026711106e-04</internalNodes>
          <leafValues>
            1.8383017182350159e-01 -8.0697429180145264e-01</leafValues></_>
        <_>
          <internalNodes>
            0 -1 111 1.1756505409721285e-04</internalNodes>
          <leafValues>
            2.6486375927925110e-01 -5.9904247522354126e-01</leafValues></_>
        <_>
          <internalNodes>
            0 -1 37 -7.5882580131292343e-04</internalNodes>
          <leafValues>
            2.0039334893226624e-01 -7.6975136995315552e-01</leafValues></_></weakClassifiers></_>
    <!-- stage 8 -->
    <_>
      <maxWeakCount>8</maxWeakCount>
      <stageThreshold>-1.1638479232788086e+00</stageThreshold>
      <weakClassifiers>
        <_>
          <internalNodes>
            0 -1 118 3.5063073039054871e-02</internalNodes>
          <leafValues>
            -4.8398575186729431e-01 6.4739882946014404e-01</leafValues></_>
        <_>
          <internalNodes>
            0 -1 11 3.6490716040134430e-02</internalNodes>
          <leafValues>
            -5.3308892250061035e-01 5.4760158061981201e-01</leafValues></_>
        <_>
          <internalNodes>
            0 -1 103 -3.7065401556901634e-04</internalNodes>
          <leafValues>
            -8.4753710031509399e-01 2.7787083387374878e-01</leafValues></_>
        <_>
          <internalNodes>
            0 -1 102 8.5390039021149278e-04</internalNodes>
          <leafValues>
            3.5431122779846191e-01 -7.2969686985015869e-01</leafValues></_>
        <_>
          <internalNodes>
            0 -1 112 4.2742429650388658e-04</internalNodes>
          <leafValues>
            2.2539876401424408e-01 -7.9287803173065186e-01</leafValues></_>
        <_>
          <internalNodes>
            0 -1 77 2.8493122954387218e-05</internalNodes>
          <leafValues>
            -7.2918325662612915e-01 2.5195470452308655e-01</leafValues></_>
        <_>
          <internalNodes>
            0 -1 28 1.0852508246898651e-01</internalNodes>
          <leafValues>
            -4.0002509951591492e-01 5.4792451858520508e-01</leafValues></_>
        <_>
          <internalNodes>
            0 -1 1 1.2041301466524601e-02</internalNodes>
          <leafValues>
            -4.9204650521278381e-01 4.0518265962600708e-01</leafValues></_></weakClassifiers></_>
    <!-- stage 9 -->
    <_>
      <maxWeakCount>14</maxWeakCount>
      <stageThreshold>-1.6755704879760742e+00</stageThreshold>
      <weakClassifiers>
        <_>
          <internalNodes>
            0 -1 112 -3.6522620939649642e-04</internalNodes>
          <leafValues>
            -7.1349865198135376e-01 5.3274047374725342e-01</leafValues></_>
        <_>
          <internalNodes>
            0 -1 120 -1.1891048401594162e-02</internalNodes>
          <leafValues>
            5.6214880943298340e-01 -4.3781420588493347e-01</leafValues></_>
        <_>
          <internalNodes>
            0 -1 114 1.8650853598956019e-04</internalNodes>
          <leafValues>
            2.7638944983482361e-01 -8.6082345247268677e-01</leafValues></_>
        <_>
          <internalNodes>
            0 -1 40 2.9654231184395030e-05</internalNodes>
          <leafValues>
            -7.3971641063690186e-01 2.6249048113822937e-01</leafValues></_>
        <_>
          <internalNodes>
            0 -1 43 -7.3125645518302917e-02</internalNodes>
          <leafValues>
            2.9361072182655334e-01 -6.5170955657958984e-01</leafValues></_>
        <_>
          <internalNodes>
            0 -1 61 -3.4553413570392877e-05</internalNodes>
          <leafValues>
            2.4692787230014801e-01 -6.6940104961395264e-01</leafValues></_>
        <_>
          <internalNodes>
            0 -1 23 4.0529757738113403e-02</internalNodes>
          <leafValues>
            -4.3303367495536804e-01 4.1015914082527161e-01</leafValues></_>
        <_>
          <internalNodes>
            0 -1 90 3.0917974072508514e-05</internalNodes>
          <leafValues>
            -7.2540116310119629e-01 2.2980861365795135e-01</leafValues></_>
        <_>
          <internalNodes>
            0 -1 66 5.8682538568973541e-02</internalNodes>
          <leafValues>
            -3.2415756583213806e-01 5.8209276199340820e-01</leafValues></_>
        <_>
          <internalNodes>
            0 -1 3 1.3750068319495767e-04</internalNodes>
          <leafValues>
            -5.5565637350082397e-01 2.9863998293876648e-01</leafValues></_>
        <_>
          <internalNodes>
            0 -1 51 1.9701261073350906e-02</internalNodes>
          <leafValues>
            1.3412080705165863e-01 -9.4149351119995117e-01</leafValues></_>
        <_>
          <internalNodes>
            0 -1 94 -1.3371100067161024e-04</internalNodes>
          <leafValues>
            -6.6248762607574463e-01 1.9877490401268005e-01</leafValues></_>
        <_>
          <internalNodes>
            0 -1 15 5.1116478443145752e-01</internalNodes>
          <leafValues>
            -2.1601817011833191e-01 8.4063839912414551e-01</leafValues></_>
        <_>
          <internalNodes>
            0 -1 49 -6.4297378994524479e-03</internalNodes>
          <leafValues>
            3.4668987989425659e-01 -5.0198245048522949e-01</leafValues></_></weakClassifiers></_>
    <!-- stage 10 -->
    <_>
      <maxWeakCount>11</maxWeakCount>
      <stageThreshold>-1.6822829246520996e+00</stageThreshold>
      <weakClassifiers>
        <_>
          <internalNodes>
            0 -1 114 -1.5743015683256090e-04</internalNodes>
          <leafValues>
            -8.3617746829986572e-01 4.9349656701087952e-01</leafValues></_>
        <_>
          <internalNodes>
            0 -1 114 1.1528091272339225e-04</internalNodes>
          <leafValues>
            3.1850281357765198e-01 -8.7016612291336060e-01</leafValues></_>
        <_>
          <internalNodes>
            0 -1 96 1.6562744975090027e-01</internalNodes>
          <leafValues>
            -4.8201429843902588e-01 4.3004298210144043e-01</leafValues></_>
        <_>
          <internalNodes>
            0 -1 14 9.2242844402790070e-03</internalNodes>
          <leafValues>
            -7.0570188760757446e-01 2.8216871619224548e-01</leafValues></_>
        <_>
          <internalNodes>
            0 -1 36 1.6790458932518959e-02</internalNodes>
          <leafValues>
            -4.7355118393898010e-01 3.7025275826454163e-01</leafValues></_>
        <_>
          <internalNodes>
            0 -1 89 5.2059884183108807e-04</internalNodes>
          <leafValues>
            2.3289434611797333e-01 -6.3857376575469971e-01</leafValues></_>
        <_>
          <internalNodes>
            0 -1 93 4.2541371658444405e-03</internalNodes>
          <leafValues>
            -5.7217299938201904e-01 2.6629751920700073e-01</leafValues></_>
        <_>
          <internalNodes>
            0 -1 104 5.9136596973985434e-04</internalNodes>
          <leafValues>
            1.7270666360855103e-01 -8.9560407400131226e-01</leafValues></_>
        <_>
          <internalNodes>
            0 -1 35 -1.7239602748304605e-03</internalNodes>
          <leafValues>
            -9.3860906362533569e-01 1.0408511012792587e-01</leafValues></_>
        <_>
          <internalNodes>
            0 -1 35 3.6437026574276388e-04</internalNodes>
          <leafValues>
            2.7771642804145813e-01 -5.7012522220611572e-01</leafValues></_>
        <_>
          <internalNodes>
            0 -1 46 5.4056718945503235e-03</internalNodes>
          <leafValues>
            -7.0644098520278931e-01 1.6771890223026276e-01</leafValues></_></weakClassifiers></_>
    <!-- stage 11 -->
    <_>
      <maxWeakCount>9</maxWeakCount>
      <stageThreshold>-1.2249625921249390e+00</stageThreshold>
      <weakClassifiers>
        <_>
          <internalNodes>
            0 -1 91 6.4397864043712616e-03</internalNodes>
          <leafValues>
            -7.6969695091247559e-01 5.1496064662933350e-01</leafValues></_>
        <_>
          <internalNodes>
            0 -1 86 -2.5766395992832258e-05</internalNodes>
          <leafValues>
            2.9514554142951965e-01 -7.9699683189392090e-01</leafValues></_>
        <_>
          <internalNodes>
            0 -1 68 3.2793082937132567e-05</internalNodes>
          <leafValues>
            -5.6537622213363647e-01 3.6956298351287842e-01</leafValues></_>
        <_>
          <internalNodes>
            0 -1 79 2.4219605620601214e-05</internalNodes>
          <leafValues>
            -4.5969659090042114e-01 4.0788879990577698e-01</leafValues></_>
        <_>
          <internalNodes>
            0 -1 100 1.8270567525178194e-03</internalNodes>
          <leafValues>
            2.2636835277080536e-01 -7.9651427268981934e-01</leafValues></_>
        <_>
          <internalNodes>
            0 -1 50 -3.0522865708917379e-03</internalNodes>
          <leafValues>
            2.0378650724887848e-01 -7.8267163038253784e-01</leafValues></_>
        <_>
          <internalNodes>
            0 -1 13 5.6057749316096306e-03</internalNodes>
          <leafValues>
            -3.0319020152091980e-01 5.5647361278533936e-01</leafValues></_>
        <_>
          <internalNodes>
            0 -1 41 -5.2033353131264448e-04</internalNodes>
          <leafValues>
            -9.2041093111038208e-01 1.5864458680152893e-01</leafValues></_>
        <_>
          <internalNodes>
            0 -1 62 -3.6070396163268015e-05</internalNodes>
          <leafValues>
            2.1360938251018524e-01 -6.0834681987762451e-01</leafValues></_></weakClassifiers></_>
    <!-- stage 12 -->
    <_>
      <maxWeakCount>13</maxWeakCount>
      <stageThreshold>-1.5045769214630127e+00</stageThreshold>
      <weakClassifiers>
        <_>
          <internalNodes>
            0 -1 104 -9.3524075055029243e-05</internalNodes>
          <leafValues>
            -5.9146338701248169e-01 4.6698114275932312e-01</leafValues></_>
        <_>
          <internalNodes>
            0 -1 65 5.6618475355207920e-03</internalNodes>
          <leafValues>
            -5.5711275339126587e-01 3.2580792903900146e-01</leafValues></_>
        <_>
          <internalNodes>
            0 -1 81 -2.6881989469984546e-05</internalNodes>
          <leafValues>
            3.6867177486419678e-01 -5.8405816555023193e-01</leafValues></_>
        <_>
          <internalNodes>
            0 -1 107 -4.0725305676460266e-02</internalNodes>
          <leafValues>
            2.9910865426063538e-01 -5.6287753582000732e-01</leafValues></_>
        <_>
          <internalNodes>
            0 -1 0 2.2920401766896248e-02</internalNodes>
          <leafValues>
            -5.1854652166366577e-01 2.9952016472816467e-01</leafValues></_>
        <_>
          <internalNodes>
            0 -1 78 3.0608181987190619e-05</internalNodes>
          <leafValues>
            -7.2559535503387451e-01 2.1754801273345947e-01</leafValues></_>
        <_>
          <internalNodes>
            0 -1 54 1.2474459409713745e-01</internalNodes>
          <leafValues>
            -4.3356081843376160e-01 3.7683272361755371e-01</leafValues></_>
        <_>
          <internalNodes>
            0 -1 20 -1.0367571376264095e-02</internalNodes>
          <leafValues>
            -9.2390799522399902e-01 1.1504727602005005e-01</leafValues></_>
        <_>
          <internalNodes>
            0 -1 31 1.0275691747665405e-01</internalNodes>
          <leafValues>
            1.1300848424434662e-01 -9.1999852657318115e-01</leafValues></_>
        <_>
          <internalNodes>
            0 -1 82 -2.6949853636324406e-03</internalNodes>
          <leafValues>
            2.2388008236885071e-01 -5.2233040332794189e-01</leafValues></_>
        <_>
          <internalNodes>
            0 -1 95 -1.0999234655173495e-04</internalNodes>
          <leafValues>
            -8.3148169517517090e-01 1.4652861654758453e-01</leafValues></_>
        <_>
          <internalNodes>
            0 -1 6 1.3303294777870178e-02</internalNodes>
          <leafValues>
            -3.2306393980979919e-01 4.0792945027351379e-01</leafValues></_>
        <_>
          <internalNodes>
            0 -1 53 -1.3707384932786226e-03</internalNodes>
          <leafValues>
            2.9736378788948059e-01 -4.8718822002410889e-01</leafValues></_></weakClassifiers></_>
    <!-- stage 13 -->
    <_>
      <maxWeakCount>13</maxWeakCount>
      <stageThreshold>-1.2405701875686646e+00</stageThreshold>
      <weakClassifiers>
        <_>
          <internalNodes>
            0 -1 68 3.2793082937132567e-05</internalNodes>
          <leafValues>
            -4.1732284426689148e-01 5.6043958663940430e-01</leafValues></_>
        <_>
          <internalNodes>
            0 -1 119 8.9248776435852051e-02</internalNodes>
          <leafValues>
            -3.8475555181503296e-01 4.6471685171127319e-01</leafValues></_>
        <_>
          <internalNodes>
            0 -1 105 -4.8474068171344697e-04</internalNodes>
          <leafValues>
            -6.9411051273345947e-01 2.5134998559951782e-01</leafValues></_>
        <_>
          <internalNodes>
            0 -1 99 7.7349354978650808e-04</internalNodes>
          <leafValues>
            2.1359798312187195e-01 -7.5044989585876465e-01</leafValues></_>
        <_>
          <internalNodes>
            0 -1 99 -5.3562747780233622e-04</internalNodes>
          <leafValues>
            -7.0137840509414673e-01 2.1826148033142090e-01</leafValues></_>
        <_>
          <internalNodes>
            0 -1 69 2.7885154850082472e-05</internalNodes>
          <leafValues>
            -3.6101299524307251e-01 4.2628532648086548e-01</leafValues></_>
        <_>
          <internalNodes>
            0 -1 59 -2.1608946844935417e-03</internalNodes>
          <leafValues>
            2.0844827592372894e-01 -8.6162507534027100e-01</leafValues></_>
        <_>
          <internalNodes>
            0 -1 23 6.3014343380928040e-02</internalNodes>
          <leafValues>
            -3.6172887682914734e-01 4.4820839166641235e-01</leafValues></_>
        <_>
          <internalNodes>
            0 -1 18 -2.4534948170185089e-02</internalNodes>
          <leafValues>
            -9.6623301506042480e-01 1.5354958176612854e-01</leafValues></_>
        <_>
          <internalNodes>
            0 -1 73 -1.1977595277130604e-03</internalNodes>
          <leafValues>
            2.7454149723052979e-01 -4.7895950078964233e-01</leafValues></_>
        <_>
          <internalNodes>
            0 -1 64 -3.5000205039978027e-02</internalNodes>
          <leafValues>
            -8.8434886932373047e-01 1.4630240201950073e-01</leafValues></_>
        <_>
          <internalNodes>
            0 -1 76 7.0539629086852074e-04</internalNodes>
          <leafValues>
            -3.1041523814201355e-01 4.5081561803817749e-01</leafValues></_>
        <_>
          <internalNodes>
            0 -1 12 5.2579443901777267e-02</internalNodes>
          <leafValues>
            2.0641607046127319e-01 -7.3091024160385132e-01</leafValues></_></weakClassifiers></_>
    <!-- stage 14 -->
    <_>
      <maxWeakCount>16</maxWeakCount>
      <stageThreshold>-1.6219781637191772e+00</stageThreshold>
      <weakClassifiers>
        <_>
          <internalNodes>
            0 -1 19 2.6965890356223099e-05</internalNodes>
          <leafValues>
            -5.1256281137466431e-01 5.0249582529067993e-01</leafValues></_>
        <_>
          <internalNodes>
            0 -1 25 4.6104989451123402e-05</internalNodes>
          <leafValues>
            -6.6246896982192993e-01 2.4562957882881165e-01</leafValues></_>
        <_>
          <internalNodes>
            0 -1 33 2.2791160517954268e-05</internalNodes>
          <leafValues>
            -6.2949764728546143e-01 2.6231095194816589e-01</leafValues></_>
        <_>
          <internalNodes>
            0 -1 88 -7.8327968716621399e-02</internalNodes>
          <leafValues>
            3.9223942160606384e-01 -4.0660917758941650e-01</leafValues></_>
        <_>
          <internalNodes>
            0 -1 96 1.9916766881942749e-01</internalNodes>
          <leafValues>
            -3.4116452932357788e-01 5.0438576936721802e-01</leafValues></_>
        <_>
          <internalNodes>
            0 -1 115 1.4745467342436314e-04</internalNodes>
          <leafValues>
            2.1897397935390472e-01 -6.0537004470825195e-01</leafValues></_>
        <_>
          <internalNodes>
            0 -1 115 -1.2118645827285945e-04</internalNodes>
          <leafValues>
            -7.7990716695785522e-01 1.9190905988216400e-01</leafValues></_>
        <_>
          <internalNodes>
            0 -1 58 7.1099191904067993e-02</internalNodes>
          <leafValues>
            -2.4897894263267517e-01 6.1640197038650513e-01</leafValues></_>
        <_>
          <internalNodes>
            0 -1 92 2.3554150175186805e-05</internalNodes>
          <leafValues>
            -5.6953239440917969e-01 2.3320847749710083e-01</leafValues></_>
        <_>
          <internalNodes>
            0 -1 42 -4.7974135726690292e-02</internalNodes>
          <leafValues>
            4.6312940120697021e-01 -3.0187618732452393e-01</leafValues></_>
        <_>
          <internalNodes>
            0 -1 110 1.7594693053979427e-04</internalNodes>
          <leafValues>
            1.6908510029315948e-01 -8.8562238216400146e-01</leafValues></_>
        <_>
          <internalNodes>
            0 -1 24 1.0254102945327759e-01</internalNodes>
          <leafValues>
            -1.6233885288238525e-01 9.4473212957382202e-01</leafValues></_>
        <_>
          <internalNodes>
            0 -1 30 -6.7900489084422588e-03</internalNodes>
          <leafValues>
            5.0465404987335205e-01 -2.2525265812873840e-01</leafValues></_>
        <_>
          <internalNodes>
            0 -1 63 1.3627471344079822e-04</internalNodes>
          <leafValues>
            -2.4430307745933533e-01 4.7906154394149780e-01</leafValues></_>
        <_>
          <internalNodes>
            0 -1 34 1.9560996443033218e-02</internalNodes>
          <leafValues>
            1.5205821394920349e-01 -7.7327662706375122e-01</leafValues></_>
        <_>
          <internalNodes>
            0 -1 84 -7.0739886723458767e-05</internalNodes>
          <leafValues>
            1.7227676510810852e-01 -5.9173572063446045e-01</leafValues></_></weakClassifiers></_></stages>
  <features>
    <_>
      <rects>
        <_>
          0 0 4 10 -1.</_>
        <_>
          0 0 2 5 2.</_>
        <_>
          2 5 2 5 2.</_></rects>
      <tilted>0</tilted></_>
    <_>
      <rects>
        <_>
          0 3 15 1 -1.</_>
        <_>
          5 3 5 1 3.</_></rects>
      <tilted>0</tilted></_>
    <_>
      <rects>
        <_>
          0 4 9 7 -1.</_>
        <_>
          3 4 3 7 3.</_></rects>
      <tilted>0</tilted></_>
    <_>
      <rects>
        <_>
          0 4 12 8 -1.</_>
        <_>
          6 4 6 8 2.</_></rects>
      <tilted>0</tilted></_>
    <_>
      <rects>
        <_>
          0 5 4 7 -1.</_>
        <_>
          2 5 2 7 2.</_></rects>
      <tilted>0</tilted></_>
    <_>
      <rects>
        <_>
          0 5 9 7 -1.</_>
        <_>
          3 5 3 7 3.</_></rects>
      <tilted>0</tilted></_>
    <_>
      <rects>
        <_>
          0 6 2 4 -1.</_>
        <_>
          1 6 1 4 2.</_></rects>
      <tilted>0</tilted></_>
    <_>
      <rects>
        <_>
          0 6 4 5 -1.</_>
        <_>
          2 6 2 5 2.</_></rects>
      <tilted>0</tilted></_>
    <_>
      <rects>
        <_>
          0 7 2 3 -1.</_>
        <_>
          1 7 1 3 2.</_></rects>
      <tilted>0</tilted></_>
    <_>
      <rects>
        <_>
          0 7 6 2 -1.</_>
        <_>
          2 7 2 2 3.</_></rects>
      <tilted>0</tilted></_>
    <_>
      <rects>
        <_>
          0 7 4 3 -1.</_>
        <_>
          2 7 2 3 2.</_></rects>
      <tilted>0</tilted></_>
    <_>
      <rects>
        <_>
          0 7 6 3 -1.</_>
        <_>
          2 7 2 3 3.</_></rects>
      <tilted>0</tilted></_>
    <_>
      <rects>
        <_>
          0 7 16 2 -1.</_>
        <_>
          8 7 8 2 2.</_></rects>
      <tilted>0</tilted></_>
    <_>
      <rects>
        <_>
          0 8 2 1 -1.</_>
        <_>
          1 8 1 1 2.</_></rects>
      <tilted>0</tilted></_>
    <_>
      <rects>
        <_>
          0 10 6 3 -1.</_>
        <_>
          3 10 3 3 2.</_></rects>
      <tilted>0</tilted></_>
    <_>
      <rects>
        <_>
          1 2 15 12 -1.</_>
        <_>
          1 6 15 4 3.</_></rects>
      <tilted>0</tilted></_>
    <_>
      <rects>
        <_>
          1 3 8 6 -1.</_>
        <_>
          1 3 4 3 2.</_>
        <_>
          5 6 4 3 2.</_></rects>
      <tilted>0</tilted></_>
    <_>
      <rects>
        <_>
          1 7 14 1 -1.</_>
        <_>
          8 7 7 1 2.</_></rects>
      <tilted>0</tilted></_>
    <_>
      <rects>
        <_>
          1 7 14 2 -1.</_>
        <_>
          8 7 7 2 2.</_></rects>
      <tilted>0</tilted></_>
    <_>
      <rects>
        <_>
          1 8 3 1 -1.</_>
        <_>
          2 8 1 1 3.</_></rects>
      <tilted>0</tilted></_>
    <_>
      <rects>
        <_>
          1 8 14 1 -1.</_>
        <_>
          8 8 7 1 2.</_></rects>
      <tilted>0</tilted></_>
    <_>
      <rects>
        <_>
          1 8 14 2 -1.</_>
        <_>
          8 8 7 2 2.</_></rects>
      <tilted>0</tilted></_>
    <_>
      <rects>
        <_>
          2 0 3 15 -1.</_>
        <_>
          2 5 3 5 3.</_></rects>
      <tilted>0</tilted></_>
    <_>
      <rects>
        <_>
          2 1 1 15 -1.</_>
        <_>
          2 6 1 5 3.</_></rects>
      <tilted>0</tilted></_>
    <_>
      <rects>
        <_>
          2 5 4 8 -1.</_>
        <_>
          4 5 2 8 2.</_></rects>
      <tilted>0</tilted></_>
    <_>
      <rects>
        <_>
          2 6 3 6 -1.</_>
        <_>
          3 6 1 6 3.</_></rects>
      <tilted>0</tilted></_>
    <_>
      <rects>
        <_>
          3 0 1 15 -1.</_>
        <_>
          3 5 1 5 3.</_></rects>
      <tilted>0</tilted></_>
    <_>
      <rects>
        <_>
          3 0 10 6 -1.</_>
        <_>
          3 3 10 3 2.</_></rects>
      <tilted>0</tilted></_>
    <_>
      <rects>
        <_>
          3 1 2 15 -1.</_>
        <_>
          3 6 2 5 3.</_></rects>
      <tilted>0</tilted></_>
    <_>
      <rects>
        <_>
          3 3 4 6 -1.</_>
        <_>
          3 3 2 3 2.</_>
        <_>
          5 6 2 3 2.</_></rects>
      <tilted>0</tilted></_>
    <_>
      <rects>
        <_>
          3 4 6 2 -1.</_>
        <_>
          3 4 3 1 2.</_>
        <_>
          6 5 3 1 2.</_></rects>
      <tilted>0</tilted></_>
    <_>
      <rects>
        <_>
          3 4 10 8 -1.</_>
        <_>
          8 4 5 8 2.</_></rects>
      <tilted>0</tilted></_>
    <_>
      <rects>
        <_>
          3 5 3 2 -1.</_>
        <_>
          4 5 1 2 3.</_></rects>
      <tilted>0</tilted></_>
    <_>
      <rects>
        <_>
          3 6 3 2 -1.</_>
        <_>
          4 6 1 2 3.</_></rects>
      <tilted>0</tilted></_>
    <_>
      <rects>
        <_>
          3 6 5 4 -1.</_>
        <_>
          3 8 5 2 2.</_></rects>
      <tilted>0</tilted></_>
    <_>
      <rects>
        <_>
          3 7 1 3 -1.</_>
        <_>
          3 8 1 1 3.</_></rects>
      <tilted>0</tilted></_>
    <_>
      <rects>
        <_>
          3 7 4 6 -1.</_>
        <_>
          3 7 2 3 2.</_>
        <_>
          5 10 2 3 2.</_></rects>
      <tilted>0</tilted></_>
    <_>
      <rects>
        <_>
          3 7 6 1 -1.</_>
        <_>
          6 7 3 1 2.</_></rects>
      <tilted>0</tilted></_>
    <_>
      <rects>
        <_>
          3 7 9 3 -1.</_>
        <_>
          6 7 3 3 3.</_></rects>
      <tilted>0</tilted></_>
    <_>
      <rects>
        <_>
          3 8 11 8 -1.</_>
        <_>
          3 12 11 4 2.</_></rects>
      <tilted>0</tilted></_>
    <_>
      <rects>
        <_>
          3 9 3 2 -1.</_>
        <_>
          4 9 1 2 3.</_></rects>
      <tilted>0</tilted></_>
    <_>
      <rects>
        <_>
          3 10 2 1 -1.</_>
        <_>
          4 10 1 1 2.</_></rects>
      <tilted>0</tilted></_>
    <_>
      <rects>
        <_>
          3 10 6 4 -1.</_>
        <_>
          3 12 6 2 2.</_></rects>
      <tilted>0</tilted></_>
    <_>
      <rects>
        <_>
          3 10 9 6 -1.</_>
        <_>
          3 13 9 3 2.</_></rects>
      <tilted>0</tilted></_>
    <_>
      <rects>
        <_>
          3 10 10 6 -1.</_>
        <_>
          3 13 10 3 2.</_></rects>
      <tilted>0</tilted></_>
    <_>
      <rects>
        <_>
          3 10 11 6 -1.</_>
        <_>
          3 13 11 3 2.</_></rects>
      <tilted>0</tilted></_>
    <_>
      <rects>
        <_>
          4 0 1 10 -1.</_>
        <_>
          4 5 1 5 2.</_></rects>
      <tilted>0</tilted></_>
    <_>
      <rects>
        <_>
          4 0 9 6 -1.</_>
        <_>
          4 3 9 3 2.</_></rects>
      <tilted>0</tilted></_>
    <_>
      <rects>
        <_>
          4 0 9 8 -1.</_>
        <_>
          4 4 9 4 2.</_></rects>
      <tilted>0</tilted></_>
    <_>
      <rects>
        <_>
          4 4 6 11 -1.</_>
        <_>
          6 4 2 11 3.</_></rects>
      <tilted>0</tilted></_>
    <_>
      <rects>
        <_>
          4 5 6 5 -1.</_>
        <_>
          6 5 2 5 3.</_></rects>
      <tilted>0</tilted></_>
    <_>
      <rects>
        <_>
          4 5 6 7 -1.</_>
        <_>
          7 5 3 7 2.</_></rects>
      <tilted>0</tilted></_>
    <_>
      <rects>
        <_>
          4 5 7 6 -1.</_>
        <_>
          4 7 7 2 3.</_></rects>
      <tilted>0</tilted></_>
    <_>
      <rects>
        <_>
          4 5 9 2 -1.</_>
        <_>
          4 6 9 1 2.</_></rects>
      <tilted>0</tilted></_>
    <_>
      <rects>
        <_>
          4 7 7 9 -1.</_>
        <_>
          4 10 7 3 3.</_></rects>
      <tilted>0</tilted></_>
    <_>
      <rects>
        <_>
          4 9 2 2 -1.</_>
        <_>
          4 9 1 1 2.</_>
        <_>
          5 10 1 1 2.</_></rects>
      <tilted>0</tilted></_>
    <_>
      <rects>
        <_>
          4 9 4 4 -1.</_>
        <_>
          4 9 2 2 2.</_>
        <_>
          6 11 2 2 2.</_></rects>
      <tilted>0</tilted></_>
    <_>
      <rects>
        <_>
          4 9 3 2 -1.</_>
        <_>
          4 10 3 1 2.</_></rects>
      <tilted>0</tilted></_>
    <_>
      <rects>
        <_>
          4 10 6 6 -1.</_>
        <_>
          4 12 6 2 3.</_></rects>
      <tilted>0</tilted></_>
    <_>
      <rects>
        <_>
          5 3 6 10 -1.</_>
        <_>
          7 3 2 10 3.</_></rects>
      <tilted>0</tilted></_>
    <_>
      <rects>
        <_>
          5 4 6 8 -1.</_>
        <_>
          7 4 2 8 3.</_></rects>
      <tilted>0</tilted></_>
    <_>
      <rects>
        <_>
          5 5 2 4 -1.</_>
        <_>
          5 7 2 2 2.</_></rects>
      <tilted>0</tilted></_>
    <_>
      <rects>
        <_>
          5 5 6 2 -1.</_>
        <_>
          5 6 6 1 2.</_></rects>
      <tilted>0</tilted></_>
    <_>
      <rects>
        <_>
          5 8 2 1 -1.</_>
        <_>
          6 8 1 1 2.</_></rects>
      <tilted>0</tilted></_>
    <_>
      <rects>
        <_>
          5 10 6 5 -1.</_>
        <_>
          7 10 2 5 3.</_></rects>
      <tilted>0</tilted></_>
    <_>
      <rects>
        <_>
          6 0 5 14 -1.</_>
        <_>
          6 7 5 7 2.</_></rects>
      <tilted>0</tilted></_>
    <_>
      <rects>
        <_>
          6 1 5 6 -1.</_>
        <_>
          6 3 5 2 3.</_></rects>
      <tilted>0</tilted></_>
    <_>
      <rects>
        <_>
          6 5 6 6 -1.</_>
        <_>
          6 7 6 2 3.</_></rects>
      <tilted>0</tilted></_>
    <_>
      <rects>
        <_>
          6 7 3 2 -1.</_>
        <_>
          7 7 1 2 3.</_></rects>
      <tilted>0</tilted></_>
    <_>
      <rects>
        <_>
          7 8 3 1 -1.</_>
        <_>
          8 8 1 1 3.</_></rects>
      <tilted>0</tilted></_>
    <_>
      <rects>
        <_>
          7 10 3 6 -1.</_>
        <_>
          7 12 3 2 3.</_></rects>
      <tilted>0</tilted></_>
    <_>
      <rects>
        <_>
          8 5 4 5 -1.</_>
        <_>
          10 5 2 5 2.</_></rects>
      <tilted>0</tilted></_>
    <_>
      <rects>
        <_>
          8 5 3 2 -1.</_>
        <_>
          8 6 3 1 2.</_></rects>
      <tilted>0</tilted></_>
    <_>
      <rects>
        <_>
          8 5 5 2 -1.</_>
        <_>
          8 6 5 1 2.</_></rects>
      <tilted>0</tilted></_>
    <_>
      <rects>
        <_>
          8 7 6 6 -1.</_>
        <_>
          8 7 3 3 2.</_>
        <_>
          11 10 3 3 2.</_></rects>
      <tilted>0</tilted></_>
    <_>
      <rects>
        <_>
          8 7 4 4 -1.</_>
        <_>
          8 9 4 2 2.</_></rects>
      <tilted>0</tilted></_>
    <_>
      <rects>
        <_>
          8 8 3 1 -1.</_>
        <_>
          9 8 1 1 3.</_></rects>
      <tilted>0</tilted></_>
    <_>
      <rects>
        <_>
          8 8 4 2 -1.</_>
        <_>
          8 9 4 1 2.</_></rects>
      <tilted>0</tilted></_>
    <_>
      <rects>
        <_>
          8 9 6 1 -1.</_>
        <_>
          10 9 2 1 3.</_></rects>
      <tilted>0</tilted></_>
    <_>
      <rects>
        <_>
          8 10 3 2 -1.</_>
        <_>
          8 11 3 1 2.</_></rects>
      <tilted>0</tilted></_>
    <_>
      <rects>
        <_>
          9 5 6 7 -1.</_>
        <_>
          11 5 2 7 3.</_></rects>
      <tilted>0</tilted></_>
    <_>
      <rects>
        <_>
          9 6 4 2 -1.</_>
        <_>
          9 7 4 1 2.</_></rects>
      <tilted>0</tilted></_>
    <_>
      <rects>
        <_>
          9 7 4 4 -1.</_>
        <_>
          9 7 2 2 2.</_>
        <_>
          11 9 2 2 2.</_></rects>
      <tilted>0</tilted></_>
    <_>
      <rects>
        <_>
          9 8 2 2 -1.</_>
        <_>
          9 9 2 1 2.</_></rects>
      <tilted>0</tilted></_>
    <_>
      <rects>
        <_>
          9 8 4 2 -1.</_>
        <_>
          9 8 2 1 2.</_>
        <_>
          11 9 2 1 2.</_></rects>
      <tilted>0</tilted></_>
    <_>
      <rects>
        <_>
          9 9 6 1 -1.</_>
        <_>
          11 9 2 1 3.</_></rects>
      <tilted>0</tilted></_>
    <_>
      <rects>
        <_>
          9 9 4 2 -1.</_>
        <_>
          9 9 2 1 2.</_>
        <_>
          11 10 2 1 2.</_></rects>
      <tilted>0</tilted></_>
    <_>
      <rects>
        <_>
          10 0 5 10 -1.</_>
        <_>
          10 5 5 5 2.</_></rects>
      <tilted>0</tilted></_>
    <_>
      <rects>
        <_>
          10 4 6 8 -1.</_>
        <_>
          13 4 3 8 2.</_></rects>
      <tilted>0</tilted></_>
    <_>
      <rects>
        <_>
          10 5 2 1 -1.</_>
        <_>
          11 5 1 1 2.</_></rects>
      <tilted>0</tilted></_>
    <_>
      <rects>
        <_>
          10 7 3 3 -1.</_>
        <_>
          11 7 1 3 3.</_></rects>
      <tilted>0</tilted></_>
    <_>
      <rects>
        <_>
          10 7 6 2 -1.</_>
        <_>
          12 7 2 2 3.</_></rects>
      <tilted>0</tilted></_>
    <_>
      <rects>
        <_>
          10 8 3 1 -1.</_>
        <_>
          11 8 1 1 3.</_></rects>
      <tilted>0</tilted></_>
    <_>
      <rects>
        <_>
          10 8 6 1 -1.</_>
        <_>
          12 8 2 1 3.</_></rects>
      <tilted>0</tilted></_>
    <_>
      <rects>
        <_>
          10 9 1 2 -1.</_>
        <_>
          10 10 1 1 2.</_></rects>
      <tilted>0</tilted></_>
    <_>
      <rects>
        <_>
          10 9 3 1 -1.</_>
        <_>
          11 9 1 1 3.</_></rects>
      <tilted>0</tilted></_>
    <_>
      <rects>
        <_>
          11 0 4 15 -1.</_>
        <_>
          11 5 4 5 3.</_></rects>
      <tilted>0</tilted></_>
    <_>
      <rects>
        <_>
          11 1 4 15 -1.</_>
        <_>
          11 6 4 5 3.</_></rects>
      <tilted>0</tilted></_>
    <_>
      <rects>
        <_>
          11 6 2 1 -1.</_>
        <_>
          12 6 1 1 2.</_></rects>
      <tilted>0</tilted></_>
    <_>
      <rects>
        <_>
          11 6 1 4 -1.</_>
        <_>
          11 8 1 2 2.</_></rects>
      <tilted>0</tilted></_>
    <_>
      <rects>
        <_>
          11 6 2 3 -1.</_>
        <_>
          12 6 1 3 2.</_></rects>
      <tilted>0</tilted></_>
    <_>
      <rects>
        <_>
          11 8 1 2 -1.</_>
        <_>
          11 9 1 1 2.</_></rects>
      <tilted>0</tilted></_>
    <_>
      <rects>
        <_>
          11 8 1 3 -1.</_>
        <_>
          11 9 1 1 3.</_></rects>
      <tilted>0</tilted></_>
    <_>
      <rects>
        <_>
          11 8 2 3 -1.</_>
        <_>
          11 9 2 1 3.</_></rects>
      <tilted>0</tilted></_>
    <_>
      <rects>
        <_>
          11 9 2 1 -1.</_>
        <_>
          12 9 1 1 2.</_></rects>
      <tilted>0</tilted></_>
    <_>
      <rects>
        <_>
          11 9 1 2 -1.</_>
        <_>
          11 10 1 1 2.</_></rects>
      <tilted>0</tilted></_>
    <_>
      <rects>
        <_>
          12 2 4 10 -1.</_>
        <_>
          14 2 2 10 2.</_></rects>
      <tilted>0</tilted></_>
    <_>
      <rects>
        <_>
          12 3 4 9 -1.</_>
        <_>
          14 3 2 9 2.</_></rects>
      <tilted>0</tilted></_>
    <_>
      <rects>
        <_>
          12 4 4 8 -1.</_>
        <_>
          14 4 2 8 2.</_></rects>
      <tilted>0</tilted></_>
    <_>
      <rects>
        <_>
          12 5 2 4 -1.</_>
        <_>
          13 5 1 4 2.</_></rects>
      <tilted>0</tilted></_>
    <_>
      <rects>
        <_>
          12 6 2 1 -1.</_>
        <_>
          13 6 1 1 2.</_></rects>
      <tilted>0</tilted></_>
    <_>
      <rects>
        <_>
          12 6 1 2 -1.</_>
        <_>
          12 7 1 1 2.</_></rects>
      <tilted>0</tilted></_>
    <_>
      <rects>
        <_>
          12 6 1 4 -1.</_>
        <_>
          12 8 1 2 2.</_></rects>
      <tilted>0</tilted></_>
    <_>
      <rects>
        <_>
          12 6 4 1 -1.</_>
        <_>
          14 6 2 1 2.</_></rects>
      <tilted>0</tilted></_>
    <_>
      <rects>
        <_>
          12 7 1 2 -1.</_>
        <_>
          12 8 1 1 2.</_></rects>
      <tilted>0</tilted></_>
    <_>
      <rects>
        <_>
          12 7 1 3 -1.</_>
        <_>
          12 8 1 1 3.</_></rects>
      <tilted>0</tilted></_>
    <_>
      <rects>
        <_>
          12 8 2 1 -1.</_>
        <_>
          13 8 1 1 2.</_></rects>
      <tilted>0</tilted></_>
    <_>
      <rects>
        <_>
          12 8 1 2 -1.</_>
        <_>
          12 9 1 1 2.</_></rects>
      <tilted>0</tilted></_>
    <_>
      <rects>
        <_>
          13 1 1 15 -1.</_>
        <_>
          13 6 1 5 3.</_></rects>
      <tilted>0</tilted></_>
    <_>
      <rects>
        <_>
          13 1 2 15 -1.</_>
        <_>
          13 6 2 5 3.</_></rects>
      <tilted>0</tilted></_>
    <_>
      <rects>
        <_>
          14 6 2 4 -1.</_>
        <_>
          15 6 1 4 2.</_></rects>
      <tilted>0</tilted></_>
    <_>
      <rects>
        <_>
          14 7 2 4 -1.</_>
        <_>
          15 7 1 4 2.</_></rects>
      <tilted>0</tilted></_></features></cascade>
</opencv_storage>
